7.342883716721110288e-02 -7.385657898893824291e-02 3.845064525885830142e-03 3.328073957828824037e-02 -2.625988382562704365e-02 3.499082328706694389e-02 -2.940878844803201941e-02 -5.537828611878935214e-02 -7.380304149474269625e-03 3.689581055985859809e-02 -4.580832475859065653e-03 4.583905681780576363e-02 -1.818680524553675792e-02 -2.575715157481694041e-03 6.698561422132321731e-03 -5.969116153791271390e-02 -2.572302477859902611e-02 -7.486479284935155208e-03 -1.748886307013337258e-05 -4.883688415667103433e-02 2.530398955898593635e-02 -7.838779311530767735e-02 -9.721743777022392313e-03 1.549819830489364975e-02 2.979302907411852594e-02 1.739735476464429609e-02 -4.396616056778049342e-02 -3.791493810765135097e-03 2.165326114887755962e-02 6.825863913708547781e-03 -3.036549732285443240e-02 1.240130837300767487e-02 2.221795653254142813e-02 1.586225854286344716e-01 4.761374748244315280e-02 -1.261532234087621995e-01 8.204852893840200445e-02 -7.408458011652596133e-03 3.892674745664307474e-05 -1.521704058091367592e-02
8.431781228736273670e-02 1.072538238125675392e-01 6.833627765084367145e-02 -3.052361633042675187e-02 -1.558233380009793612e-02 -8.144474750315396083e-02 -2.044054756863801503e-02 1.974572052435779202e-03 -1.313268438777713716e-02 8.528722802416159599e-02 -3.854113163778215279e-02 -6.346873434793432432e-03 -1.457721785495288101e-03 -1.632064512143718490e-02 -7.730734883960601288e-03 -1.839253010045266423e-02 1.565130746924958335e-02 -1.331450494822428721e-01 -6.916643861885035660e-02 -1.166432433031999727e-01 -3.691489634947262705e-02 6.860143684566152866e-02 -1.107930472380374426e-01 3.431842684989050429e-02 7.166541530057640719e-02 -5.841939135866742322e-02 -2.296387556250556461e-02 3.246006832342475668e-01 -2.012090339641952816e-02 7.144977500541670017e-03 -5.829740665915955980e-03 6.480517054425963611e-03 -4.346742166090145076e-02 3.932193533147718134e-02 -1.388066300130258446e-02 2.469298404325614982e-02 -2.252679836070524966e-01 6.134078076938505319e-02 2.586631813733168347e-02 7.967172443509115687e-02
-7.874136186710616048e-02 1.238920148268293428e-02 -7.536740715396551826e-02 -4.222111697741379177e-04 -3.290207156118576254e-02 3.107394905450804046e-02 3.640054240909617982e-03 -8.582313318751844111e-02 -8.049910734617037045e-02 -6.053296078216125717e-05 -1.263582524136446991e-02 3.979758189499434801e-02 2.149556926235792267e-02 2.808037065408352986e-03 -9.537686022762888877e-03 -1.623874930461834676e-01 -1.179061108887235754e-01 1.204870684872347275e-01 -2.226272388064039556e-02 -3.786097426949178862e-02 -8.486059441535573344e-02 3.013703183795865895e-02 -6.647367367774598135e-02 -2.158282171493493273e-02 9.828213874289123964e-02 -1.134020340664639442e-01 -3.806207020487998444e-02 -3.207610709647190639e-02 2.517814772759793818e-01 -1.956887704206130424e-02 1.642508492826635393e-03 -2.715905034354393344e-02 -3.690478277409580538e-02 9.440248170502418823e-02 3.055005418665405689e-02 7.110985793167630409e-02 1.059245339757544507e-01 -2.345076613288520073e-02 -2.373101314655183189e-02 2.881568835738833045e-01
-1.177944252529116997e-01 2.625759848939561159e-01 -3.429973950210524203e-02 -1.264927609942172529e-02 -2.156239325489680073e-02 1.445717941563531492e-02 1.436410504919445391e-03 4.102029865146236860e-03 -1.731765101960860975e-01 -6.646129253244913160e-02 -3.802647464398232341e-02 2.351000175986262680e-03 1.063822345490843951e-02 -1.800846728289495768e-02 -1.186100030590451007e-02 -1.483000837823965634e-01 4.439059033139931831e-02 8.645584539283690528e-02 -3.546615463980426486e-02 7.850707508284908431e-02 -3.556377978611652974e-02 -6.848525259143459221e-02 4.828087970498259190e-02 -8.461202702179924928e-02 -7.222727034182625794e-02 -8.836443597247686799e-02 6.292608034440910943e-03 3.606473767400652369e-02 -5.960853675161569692e-02 5.349222066864977448e-02 -1.831401533099111592e-02 -4.492275971232419923e-02 1.429802164492797838e-02 1.266248880177258673e-01 3.551308839295372333e-02 7.118447718535145241e-02 8.790460192231215608e-02 -9.998242372774801545e-03 1.054469416779585111e-01 6.968533333318620293e-02
1.572606648010631269e-01 -9.234249359325692741e-02 -3.905485775390404174e-02 -4.289854242144012370e-02 -3.451046913723565535e-02 -2.389945202738323268e-02 1.850352928994570822e-01 -6.414798767274139391e-02 -4.562232074681966260e-02 -2.094581831050933152e-02 -6.877998579768488177e-03 3.455183433201196828e-03 -3.348065533891719792e-02 -2.836363932814948627e-02 -1.488528768214275773e-02 -2.934808648171422646e-02 1.486643788992844488e-02 8.803188611871075320e-02 1.166169623821161280e-02 -4.227126294991243038e-02 4.728399067753539381e-02 -4.388343802717720177e-02 -5.099660402000429082e-02 4.105612218558025430e-04 2.913686237448185820e-02 -6.813780848646711075e-02 -4.924155079810568075e-02 -1.064908183710653045e-01 -5.293659676833997740e-03 -5.265591163380739514e-02 -4.159216536304382716e-04 8.435712281275509206e-02 4.465180897897074418e-03 7.226436380213571709e-02 1.009560135944777837e-01 -1.689338085696311456e-02 1.225485007106333624e-01 1.033505292239807107e-03 -8.771962006700263076e-03 -1.337335210081135907e-03
1.354420626596523347e-01 -4.607736107854126318e-04 -5.564387474897588420e-02 2.039175752655397918e-03 -1.402778583924349856e-02 -1.607983557948849257e-02 -4.612298107014176779e-02 5.431542531097090926e-03 2.699590985004491489e-02 3.628285729707724123e-03 -1.027515264240459053e-02 1.084408699362730821e-01 4.272798861381072594e-02 4.716747613834338521e-02 -4.919923218562401168e-02 1.843711024620840466e-01 6.373194948988336606e-02 -1.107843553329271140e-03 -8.089187976593389950e-02 -6.465920999636122490e-02 -7.890958010134448142e-02 3.023774430892723492e-02 -4.860740208538302104e-02 -4.194228976573585732e-02 1.302665674038039172e-02 -9.689322904613277554e-02 7.961321105079832705e-02 6.580797384125185862e-03 -3.620842732193338409e-02 -1.771473721392215553e-02 -1.500263979194684828e-02 1.022656523845314192e-01 -1.403555009718058383e-02 1.192808078610803207e-01 5.202341555187577765e-02 -4.537586593785918748e-02 -1.899195608159295057e-01 6.597970571663044903e-03 2.267891862343869580e-02 -1.292036864708946409e-01
-1.227159235658134839e-01 -8.246246699027505456e-02 1.676800053695517642e-02 6.255344672076579293e-02 1.438651761919586096e-02 2.018922742001007589e-02 -1.011793370921707375e-01 -3.424228520178151242e-02 -6.194068856924565131e-02 3.193867775546621601e-02 -2.456242965586513671e-02 2.737737504011023351e-02 -1.355265026475551207e-02 -5.422461052007488541e-03 -1.180268923920802307e-02 6.874999213912291740e-02 -8.213267957892099458e-02 3.431474078581926018e-02 1.068683281608419633e-01 2.195049582616248780e-03 -5.031100651675882163e-02 -4.347921369416542919e-02 -8.443647348678776088e-02 3.873114983429568753e-02 5.528376525349427278e-02 -2.049330654751425895e-02 -8.681877686384814607e-02 1.839805953792857454e-02 4.019199641106966508e-02 -2.335079310178823572e-02 1.319884269773786219e-04 5.583635775943976420e-02 -6.521688810750046750e-02 1.048930094047287320e-01 -4.148624735462380642e-02 7.069493173418682670e-03 1.298065500135231476e-01 -2.415625087655938821e-02 -2.852334667332310711e-02 1.726021888570457574e-01
-2.679468260332287799e-02 -9.015786886364754449e-02 4.325335531964045327e-02 2.229334370358467335e-03 1.806919522871092924e-03 1.000342821095456664e-01 1.330425043153572462e-01 -1.372549177476083959e-01 -8.598620826681946383e-02 -2.694104067702291980e-02 4.260189851075765755e-02 -1.257245910379857327e-02 -1.510988618579960606e-02 -1.229353804289536577e-02 -1.536249934906275087e-02 9.477529135568286967e-02 -6.910470905636491301e-02 1.273994981056984083e-02 5.775272631400446555e-02 8.557584160445165511e-02 1.247272636768977649e-01 -5.482839953541754005e-03 8.590364206464504160e-02 2.680275748371107117e-02 -8.585115770436820004e-02 -5.670167793525731498e-02 -4.704210868889785457e-02 2.949587399477406925e-03 1.040107151679947606e-02 -3.465920442821801561e-02 -5.447725913958938529e-03 -4.055859974273710866e-02 -6.137594650380106404e-02 2.994686462931753571e-02 4.755083416619266222e-03 -1.225035744849794182e-02 5.739388988013362745e-03 -2.443389443300948011e-02 -2.966247566448058145e-03 3.309807805899944982e-03
-9.372555889146294561e-02 4.547764039688000082e-02 2.676758261254397198e-02 -4.318718492156686795e-02 -1.110599354311233872e-03 1.653653454141567128e-02 1.808820395611737686e-02 -3.594326708152222744e-02 -8.026582081690560033e-02 6.138712704189280139e-02 4.877588740898258085e-03 -3.955327399554685146e-04 -6.665350842779077002e-03 -1.718456231584071948e-03 -6.270159310819247919e-03 -2.215132144394572444e-04 4.139441552691484894e-02 3.876575338818614991e-02 2.957965436229369541e-02 4.804616415675246055e-02 -3.352402434589275143e-02 -4.692314815443787007e-02 2.014084753211264900e-02 2.302557244520480467e-02 -1.267122034589131807e-01 1.123617987478400804e-01 -1.153894390463289926e-02 -1.344653265621086231e-02 -2.757725019154256413e-02 -2.709128786333015598e-02 -6.701959709187001180e-03 2.119202604077143753e-02 6.460201815807116443e-02 1.990354692169666803e-03 -3.724557988007981546e-02 1.483744389720889623e-02 -2.645193244449643710e-02 -1.131229422006394501e-02 -1.664028095967770571e-02 6.559815495654956752e-02
9.555537569300923129e-02 -1.935503666784299179e-02 1.277621890244770532e-03 -3.933815900236910940e-02 -2.817447022152502409e-02 7.104944380502270507e-03 2.306521482095283404e-02 -6.149612585776816770e-02 -1.225827226578084100e-01 -3.364046543480662260e-02 1.266219415439984348e-02 4.348630310929114257e-02 -2.077213917956477821e-02 1.341374697264376484e-02 2.797591680776502152e-02 2.755570164816293147e-03 1.052883159339423717e-02 5.471360058851893610e-02 1.212405335496742446e-02 -3.253819212703747826e-02 -8.803542468943788279e-02 7.207537181151818517e-02 -2.649209824396211999e-02 -1.785500494308617236e-02 -4.717494424426942057e-02 4.985401687014999472e-02 1.882950176476090587e-02 4.580778705270496277e-03 2.564292278113761495e-02 1.866657014946003779e-01 -2.251713170197773908e-02 -1.636083394693054957e-02 2.704574319189945522e-02 -1.823457218062824250e-02 1.572331499907697952e-02 3.377925763403245851e-02 2.143536209985508721e-03 -2.853918929017438925e-03 9.971220617043538917e-03 -1.535534995819394233e-01
-8.138476143226261450e-02 -1.199322006711872786e-02 -1.013865085739896338e-02 -1.104485300956575995e-02 2.352096714678258288e-02 4.415657225378176454e-02 4.454950349652910674e-02 6.791657103550666208e-02 -1.191194780149012616e-01 1.929133909132794283e-02 6.634573825277077785e-02 1.562262662231828428e-02 -5.069465269072447045e-02 3.805973372675765243e-02 5.335214129649575726e-02 -8.636451793724340964e-02 -7.192772093973862600e-03 1.051732922204923482e-01 -9.869452472195217041e-02 -7.036320671015836026e-02 3.941209833989449407e-02 2.155411743047985773e-02 5.280368391408072314e-03 4.062978626987819725e-02 1.121318812817415494e-01 -8.887482208248367876e-02 -2.123968320184416170e-02 -2.717418702867990116e-02 -1.907057106083983114e-02 -5.135464805830410734e-02 3.642410092273072435e-03 -4.315015338357726382e-02 -4.723470219782780616e-02 7.195522698447281984e-02 -5.532804386292818760e-02 -2.188711489634492455e-02 1.268788233571459777e-02 2.161634825985872099e-03 7.349312223815808454e-02 6.136754997527747724e-02
1.470702507049382324e-01 -9.920339187267581023e-04 -3.206022435121416714e-02 -1.093198346094417378e-01 8.371787878810401512e-03 -6.591463328389937648e-02 -5.078613540196386805e-02 9.089922904383325453e-02 -1.263810085199774114e-01 5.663743151772335227e-02 -1.159260651251389079e-02 -2.777328804322404948e-02 6.401089695073720366e-03 6.547906206543500918e-02 2.596626581496914738e-03 -1.772003166555140008e-01 -9.137943704584537349e-03 1.016839419239145420e-01 -2.198990420922230377e-02 1.785172119110411959e-02 8.222627956761369150e-02 -1.925638139231120732e-02 1.188933843722774220e-01 -3.016224346168853293e-02 -4.061706364805973968e-02 1.550409526944394878e-02 2.877558390510104661e-02 -5.288821046700253187e-02 -5.965520705505591298e-02 -2.374092993787184358e-02 -3.845806999516020175e-02 1.463351539024753756e-03 -2.385393502846533745e-02 -6.470621125395053033e-03 -9.277006363521297233e-03 1.521278825505686765e-02 8.717838166388834631e-02 -2.299624065191189365e-02 -2.646543235113594725e-02 1.407442655130665687e-01
-6.626880008803216759e-02 -7.821847912985128298e-03 2.006905814139343903e-04 -3.939893357178590738e-02 -1.537168084270067528e-02 2.247657737858464386e-02 -8.221100794396347944e-02 2.422184489486315859e-02 3.212940063080962222e-02 7.378299553654025025e-03 2.146047805101494038e-02 7.711371879883594654e-03 -5.515332490977567156e-03 1.772887287620095870e-02 -4.534346211209332005e-03 -6.792748270630974416e-02 4.405061662649358174e-03 -3.110838181430655019e-02 1.414779789349497434e-02 -2.506377904908311648e-03 2.058748369009437765e-02 3.211517423366574975e-02 -9.535828474191874668e-03 -1.814189289446222972e-02 3.317369944484326733e-02 1.721221879167682267e-02 -7.717142826610397938e-03 -6.598391694449040612e-02 -5.085989330735700073e-03 -1.223940462452587086e-02 -3.145548618479267981e-03 4.863912453236295119e-02 2.534865927264504798e-02 -7.241680447426580847e-02 2.818083338678381219e-02 3.406185862264741321e-02 3.054469023098464048e-02 4.096479837373452788e-03 3.394976383278599900e-03 8.771512584597743190e-02
-1.086464770555628928e-01 -1.117407863426350262e-01 1.982374404233360268e-02 5.179752809484822196e-02 -8.567306887476181312e-03 1.322719777347915182e-01 1.038107238553265810e-01 -6.545552132474866114e-02 -2.127744856834829501e-01 -2.346309130999424831e-03 -1.717083475671172046e-02 2.120985007244243631e-02 -9.526502160781500153e-03 1.148028143335752815e-01 -8.971042637897880603e-03 1.801029062830987182e-01 -7.764571310423545869e-02 9.040905499073211005e-02 9.983307425173051919e-02 -9.939580479654291922e-02 1.787443294097149638e-01 1.839616003746152861e-02 -9.416264562671604332e-02 -4.923733753892493847e-02 1.336624899200066219e-01 -4.212289563083972815e-03 -2.248175523069979864e-02 -6.278629406880434360e-02 -4.210023984841404845e-03 -9.374892769684492477e-02 -1.216523091781231657e-02 -8.830316558373862978e-02 -5.927665260277368425e-02 8.977402725653048365e-02 2.602356384519363339e-02 -3.399267950640533220e-02 1.365932443239339239e-02 -1.267871464909251476e-02 2.380572574167696964e-02 -3.863079345117398367e-02
-1.184671291984477626e-01 5.721914979011891167e-02 5.792882612393272096e-02 -5.725343998517325173e-03 1.502241439727244714e-02 9.387471381446194085e-02 -3.012919551533846559e-03 6.245516165485177212e-02 -5.329808925725625784e-02 -8.344097211883311216e-02 -1.410429727418047695e-02 2.072604262693652014e-02 -6.742262747022125316e-03 6.908222770209925673e-03 5.210467180356680855e-04 -1.868492535933653428e-02 -5.216772086740289159e-03 -2.239711529486233810e-02 -2.033274577464260977e-02 -8.746852135264904585e-03 -2.056216398584231192e-02 2.442628117933041965e-02 -9.349123326225804165e-03 5.404629322761309203e-03 1.981567379573619114e-03 -1.134272415893752550e-01 2.614744336259529692e-02 5.954306583837868164e-03 3.507322835309479442e-02 8.450871730913744884e-02 -9.638491112156545235e-03 -3.096970975105452911e-02 6.171870848502201273e-02 1.755364087828674702e-01 -8.307906317295987719e-02 -4.272271050282178129e-02 -5.275785852917171809e-02 -1.008827512356093650e-02 -2.114736931948104498e-02 1.850456255523303534e-02
1.196426669799621235e-02 -3.389591155067610967e-02 -5.710799885309895962e-02 -5.772731263423246106e-02 2.287676597785873872e-02 4.605491972140607349e-02 7.033713803738446402e-02 -7.537500183472756188e-02 -1.102240790765127432e-01 -8.954779849076627274e-02 7.956194657741786150e-03 -2.414828053378359832e-02 1.441406339645295723e-03 4.267280059556399774e-02 -3.122020566364300601e-02 1.487772890928941438e-01 1.469878350831330949e-01 1.165687085237002568e-01 1.288047063894629148e-02 -1.015230768259442473e-01 -4.344872534735495090e-02 3.504734046298288441e-02 -3.287094960926884024e-02 -1.163028483374868062e-02 9.025731216843846383e-02 1.563320485339763852e-02 4.325413105350720509e-03 -7.737610623736117244e-02 -6.907958154019636088e-03 1.097620670433917117e-01 3.215370111815370885e-02 -2.698069809413776790e-02 7.591018386486579443e-03 1.189511030548420778e-02 -4.718505273389277804e-02 -9.256224828681663963e-02 1.150199111919852635e-01 4.441863598466756075e-02 -4.028130071035982210e-03 -1.708616911557090390e-01
2.703026214070504071e-02 -9.306359789167717445e-02 1.734763182064692419e-02 -1.464609259185149261e-02 -2.068817498451561848e-02 4.916225091524238644e-02 8.033189774630605795e-02 2.093756698383786308e-01 5.543601528270612755e-02 -6.420569210261061269e-03 -7.493170650093980770e-03 -8.339854246968913046e-03 1.251832073701824102e-02 -1.065882513156576894e-01 4.359059522666248153e-03 1.537401977947420138e-02 3.596401897412308812e-02 -8.146857966174168852e-02 -5.446210738295831529e-03 1.055578150577018842e-01 1.682454358595258381e-01 -9.531018840312469043e-02 -5.741919257216067732e-03 -2.570519520049822579e-02 -4.885052600948460583e-02 -2.692330262724463089e-02 4.362154570326269749e-03 -5.873251822106086845e-02 -8.202297380485773504e-02 -8.141113597086019685e-03 -3.129380612611835921e-02 -1.005035118979989012e-02 5.088843281678876590e-02 4.220809430124614764e-02 -9.904667995599290842e-02 -1.018970140387260312e-03 2.773617571177341631e-02 -5.395916504365105837e-03 7.656871161913267332e-02 -1.400780043656976726e-01
-1.238472432148597473e-02 1.178034190176152768e-01 4.372535480758883014e-02 6.225234872407477485e-03 -1.562090569552985510e-02 -1.171348405212569999e-01 1.339202087845565992e-01 1.366779066993120406e-01 -1.487833768689990066e-01 3.296684196807156408e-02 -2.607366539331261446e-02 -7.316872683319872346e-03 -1.881031772128312698e-02 -6.711404094428344291e-02 3.608930579870806476e-05 -1.410745816090180627e-01 7.291787043144172357e-03 9.398884578565409875e-02 -1.654398384642868924e-02 1.806155129410383364e-02 2.200198876666625142e-02 1.069719750584538220e-01 2.674774980961983073e-02 5.374093987985417015e-02 2.170577436532155138e-02 -6.125255357933503259e-02 -4.840997213533937416e-02 -1.203722921861919565e-02 2.169529195249146961e-02 3.480051661752416731e-02 -2.114271322335086606e-02 -9.659192276219756568e-02 -1.827075188680164775e-02 1.760087532633329566e-02 1.269690061954936028e-02 -3.897991034406585870e-02 3.817698447978904591e-02 -1.751993796432721462e-02 -3.529246272400739237e-02 -2.648147301095402084e-02
-7.748434689339267489e-02 2.870371776241244927e-03 2.480376155218142007e-03 -5.767946090624751984e-04 5.209384281429785268e-02 5.211131570405981052e-03 1.028398443238643170e-02 3.350732852096188243e-03 -8.298293740027315457e-02 -2.108015726606644186e-02 -3.171374774386671869e-02 -9.813134438288339048e-03 5.902909036766169557e-03 7.976288562499890544e-02 8.010421931626012654e-03 -3.044477775696629446e-02 7.481625893377891190e-02 4.615910077446217646e-02 -6.373028774362120633e-03 -7.291796640053516132e-02 -3.043977637764848018e-02 3.627289735483039262e-02 -1.571920598103902084e-02 -9.474682606270904903e-03 -4.764111896552103431e-02 1.035917273161050672e-01 -2.671211552847085197e-02 -1.445014598886680372e-02 4.580933152085969046e-02 2.063448396652005357e-02 -9.311128731424556451e-03 -6.066300864410283100e-03 2.340010214800047200e-02 1.798607887541982947e-02 -7.693195169710929232e-03 -5.413217437920583158e-02 -2.645572500620258904e-03 -1.121086309345450602e-02 -1.619963417967871383e-02 4.644616856508959613e-02
2.494276919732477116e-02 1.229590305527062527e-02 3.255034600153434987e-02 3.174579886835096620e-02 -2.583013365250638391e-02 -1.189953402112973839e-02 2.333327091660259561e-02 8.614058971634214190e-02 1.439979817873558200e-02 -1.979272284561395256e-02 -5.656415309187079292e-03 4.541334145698272193e-03 -3.704886030825960824e-02 7.075667858586552443e-03 5.174362311762964461e-02 -8.457654573957284691e-03 4.419509316965219287e-02 -7.563957692972546332e-02 -3.866182620221333271e-02 1.291927550480873217e-02 -4.757752466919756840e-03 -1.447554720374035148e-03 -8.093170471058596868e-03 2.945827018153185373e-02 -5.682752755155366653e-02 -4.398109879646657644e-02 -6.273380527930480857e-03 -7.672612555281407322e-03 1.608472441395978128e-02 -1.897252045001976417e-02 2.096949293310020335e-01 -3.061733302152989250e-02 -4.113419127491964311e-02 6.392848581823300236e-02 -2.433271696986582383e-02 -6.096997435107568558e-02 -8.799144090121038949e-04 -3.115603645891436291e-02 -1.515321204132891522e-02 -8.979415956637049057e-02
1.970713490294857470e-02 2.807516192437441160e-02 4.350477567064739079e-03 -1.514434253676567692e-02 -1.293064532117363732e-02 -3.587551547394336737e-02 1.462006458645132359e-02 -2.013948809856908745e-02 2.006921229633930326e-02 3.885225931861457753e-03 1.709136929267016103e-02 -1.039503877486580054e-02 -3.157769957609163347e-03 -5.870612399299479645e-02 -1.033624970625787905e-02 8.257659578195582217e-03 4.871950206940788702e-02 -3.677881112786971635e-02 1.221913794952312823e-02 8.373578403418562022e-02 9.806043100081887620e-02 -1.336933911325029201e-02 -1.733067289296769120e-02 -2.827684869819577923e-02 -1.058436838240518763e-01 2.710397494271864563e-02 2.019717811354823644e-02 -1.884804381653338787e-02 3.301113624604037899e-02 -1.521363563232222549e-02 -9.187961736253707004e-03 1.414935504274627415e-02 -1.963704738492005192e-02 -2.621030456418095914e-03 2.597175354088204768e-02 -2.966991171271829431e-02 -1.856880975902845676e-02 -1.247089305924247056e-02 -1.505297369788729210e-02 3.033027775401691759e-02
-3.571079544359791191e-02 -7.507617384911482962e-04 9.268025589570985656e-02 -4.829108752792064807e-02 7.760753705638404921e-03 1.632909002448450220e-02 -3.354938870139474033e-02 1.284826743708806507e-01 6.903694646153800407e-02 -1.732060901059362737e-02 -3.271225279466970920e-02 -1.788114653043109195e-02 -1.834925185877499601e-02 -3.894112137283938652e-02 7.212736331206535262e-03 -1.275224791340205666e-01 -6.979043284636141098e-02 -1.311462259803569119e-01 -1.062569715303620516e-02 -4.068489852611049951e-02 2.628713870159118254e-02 1.215472539237935981e-02 -2.954146783813930630e-02 -6.566774231533463457e-02 4.814893176105705663e-02 5.748868871187357704e-02 -1.005589706584492614e-02 1.867587697179304285e-01 -4.723868426831190348e-02 8.674318042852126320e-02 -1.733140358035795137e-02 3.347777257287254393e-02 6.170954087228799206e-02 1.619032561288676064e-02 -9.067002424161137164e-02 6.323657681890365589e-02 1.257736616475092079e-03 1.301672451968880449e-02 -1.679288253511588419e-02 -2.739831805269434331e-02
5.913794811379625288e-02 -1.979986332825861214e-02 7.918007185782395541e-02 -2.666263910535626031e-02 7.027926993109149915e-04 5.510290766698977029e-03 -5.623004736173502910e-02 8.326138246658239261e-03 -1.557418694962126315e-01 2.060138664287566174e-02 -2.944867039544976119e-03 -7.627272944979922266e-04 -9.448490065237709692e-03 -2.662131719138360192e-02 2.884776936941816153e-03 2.140837955745672136e-02 -3.435658363830834672e-02 5.653683961390582741e-02 1.899069920134624154e-02 -3.638962443314858880e-02 -3.156311161878052381e-03 3.235133891294184570e-03 -6.301445795741040905e-03 8.017786128822258795e-05 7.521306433295868454e-02 -2.995944750415082888e-02 -2.198530245646564477e-02 3.257034675473780005e-02 1.804353160595864375e-03 8.563613302107231026e-03 -1.065985287349814278e-02 -3.216109412549347096e-02 3.784706541347687692e-03 1.962214215827633168e-02 -4.251049600504005696e-03 3.562958936286877293e-02 -2.901738527677862056e-02 2.178539766489955010e-03 2.276906542301768838e-02 2.771986155636534804e-02
1.689171521145698893e-02 2.024105922551468206e-02 -3.946302457409259917e-02 -7.837212925733860747e-02 -1.085654649068432120e-02 -8.837155838600924129e-03 -4.524543437404161123e-02 1.637735007134490661e-01 -6.131697135041196123e-02 1.879101766239024141e-01 -8.667271621468330620e-03 -1.438389615628660233e-03 1.500622783549427838e-02 1.086987866087612588e-02 -2.273344549972244541e-02 -7.618560471606945772e-02 -3.506487529553538318e-02 2.935730898112232784e-02 5.257240722133203759e-02 -3.562593432392459347e-02 -3.960227277456862365e-03 -4.303661467079032688e-02 -1.500085235186868031e-02 1.221958119787283116e-02 -2.683817453783679530e-02 9.029182298143061114e-02 -1.964227422057530925e-02 2.514758271103937140e-02 6.503204133822333699e-03 1.235736396548803989e-02 -5.780235923711926280e-03 -4.730269390954620207e-02 -1.354363101480151287e-02 -1.230445130476170573e-01 1.294559960792939987e-02 5.854435884398276335e-02 -1.507591473730037109e-02 2.098330055900118549e-02 -2.318708515634224782e-02 2.460391133157824664e-02
-3.053296892962945042e-02 2.162559217717516594e-02 -6.202212754344463980e-03 -3.627708048084841985e-02 1.794663417247359047e-02 9.958525460853347167e-02 1.620509219621948461e-03 2.585231172170524352e-02 -6.657746884645379670e-02 -6.081804800000849970e-02 -6.582926143589119990e-03 -1.640303977381308426e-02 -1.440337306819117202e-02 -2.972210342832689190e-03 1.483241646976178607e-02 1.387403261883347547e-02 -1.001317185040557708e-02 8.127437795023417788e-02 -1.305888525621379422e-02 2.928263704735883238e-02 -8.312414885621698113e-03 5.330365910235679988e-02 -3.128683838506333970e-03 -4.400160045437179201e-02 -3.745219333767881714e-02 1.561488479276989805e-01 -4.515506023956514930e-02 -4.850704569378867792e-02 -2.207328681527132366e-02 -3.564415999744385832e-02 -2.410556678504279654e-02 3.045407452389151115e-02 2.609964023991971985e-02 -8.026619942885773740e-02 7.747656676911949571e-03 2.269479935313511304e-02 4.038022292269469876e-02 1.888487659828005059e-03 2.625254453419845983e-03 -3.474881192310182165e-02
6.714560567818443626e-02 -6.548310600888793132e-02 -7.489869674531857147e-02 -4.284959379133691793e-02 3.488607969523495334e-02 2.208199197006162004e-02 -5.968110521995110412e-02 -1.645887922379940527e-01 4.557722762443642411e-02 5.455602530969105163e-02 -3.106681726752485995e-02 1.517545237472420335e-03 5.410240382298246026e-02 -3.355707059215375099e-02 -1.953212109617615336e-02 -1.222794371858426238e-01 5.526640027912734648e-02 -6.136417078571598793e-03 -2.158118882192960886e-02 1.204347740598917249e-01 -1.596124023700054226e-02 -2.226542677229228183e-03 8.261169628322279079e-02 3.762609271886268453e-02 3.454158224369683478e-02 -3.775243951271031045e-02 -6.186348743606318035e-02 -5.131594010330704780e-02 -2.924270639555648713e-02 -7.268894649503468419e-02 2.309573904463604888e-02 -8.391792361882232862e-03 2.027092224818714816e-01 -8.004864175180046457e-04 -4.034565150186838339e-02 4.217977202651623791e-02 -1.318171820280316514e-02 -2.725227665415818137e-02 -4.797147461642529975e-02 1.723168901812904552e-01
-7.820489320297785429e-02 4.710837178214274251e-02 5.975583302725386708e-02 1.055053700472230183e-01 -2.022278052284847902e-02 5.323390019707793883e-04 -1.217976543315638614e-02 -5.456217216799708579e-03 -1.454229391065650356e-01 3.294828637070269101e-02 2.540761774006723012e-02 4.206967447448774211e-02 7.324388343768802739e-03 -8.944601571289073627e-02 -5.657897013405449767e-03 -2.942733315199378905e-02 4.115473037454835809e-02 2.008205711140552963e-01 1.844316585422303006e-02 4.832650990038587537e-03 -4.232234149696842418e-02 -2.353951834895232423e-02 -1.419613828708628581e-02 -1.188375671389717558e-01 2.474122964978727954e-02 8.495487173693753308e-03 1.810788538182801777e-02 7.123298361423116565e-02 1.989287311662941982e-02 -4.759791144879870622e-02 -3.613877827507794294e-02 -3.931229756515734058e-02 -3.248587422366175283e-03 -2.513463976015135187e-02 -8.266770833056467926e-02 4.461762517675207235e-02 -5.718188750989076224e-02 -1.896702562054470784e-02 -1.917958537501983710e-02 1.413507447067282596e-01
2.059087164520321048e-02 1.633422294302254441e-02 2.698897823823309065e-03 -4.284364817647466628e-02 3.982231830467853478e-03 8.967990016870304448e-02 3.204152746665865636e-02 -5.735658523158126271e-02 1.326525459228855564e-01 4.488371797038775979e-02 -2.663922049661338401e-02 6.157214163234804409e-03 -8.056958159574112086e-03 9.105904349455927471e-03 -2.096596824360901206e-03 -5.885779112159317261e-02 1.240456848382147977e-03 -1.572985460549569114e-01 -1.872208536964715953e-02 -6.238751970467191349e-02 -2.864433389835905133e-02 -1.212292423540686781e-02 2.181767967190432339e-02 -3.552322364574955066e-02 1.243057739118327149e-01 -8.571397316000381461e-02 7.371945442611137211e-02 2.429202946191194243e-02 -6.623059223901096859e-02 8.164545640635569382e-03 -2.387043472481217496e-03 -1.839800536723729119e-02 8.644880543669559991e-02 9.473216013625292142e-02 -1.543642962776025675e-02 1.797086948527192030e-02 -1.437949388364326460e-02 -8.242448505792113580e-04 -5.101459431359118592e-03 -9.179813435184611126e-02
-8.570867230307818718e-02 3.309292131685543509e-02 6.172230600566822739e-03 -6.100945224720498265e-03 -1.076656205280349630e-03 -4.502136068170371069e-02 1.013102892249992393e-02 3.659921963866268491e-03 -9.165560414462053940e-02 -1.265362935178219322e-02 3.758972215540920536e-02 -8.162410033039042140e-03 5.267415810252425168e-03 -3.594919773385134298e-02 1.261919019615789263e-02 7.927660458144840383e-02 8.066324918968817426e-02 9.013094954162423345e-02 -2.130135619656900112e-02 -6.464446454808162046e-02 8.521965414795119875e-02 -6.439586671339891932e-02 -1.890726810290810356e-02 -5.716017875032457229e-02 -6.920428788690592171e-03 5.447942726360364973e-02 -2.483500701776270025e-02 4.947511771768321048e-02 -1.722073168729547701e-02 4.832449917790673094e-02 1.292139313415835260e-02 4.150254113785266721e-03 2.439241482114875778e-02 -3.357571300839454903e-02 -2.661989430807740892e-02 1.922853959132802409e-02 -5.969074949927473395e-02 -2.985963036094283277e-03 -5.309594672697570770e-04 2.832252255622638715e-02
7.561990009592912954e-02 -4.798414125884052292e-03 -4.895498816073741433e-03 -1.521398049952003319e-02 5.248819320482245310e-02 -5.495401999848340685e-02 4.945802716224747403e-02 -2.080944439625342576e-02 -1.754935087343613420e-02 -3.861833275094143925e-02 -1.140428108095441900e-02 -2.007065044868720435e-02 3.116721726464915382e-02 -1.006471619060059081e-01 5.099073266960672292e-03 -1.201787368868711264e-01 4.756751310450015729e-02 9.774931709144464229e-03 3.223274941488404877e-02 1.563891609446221853e-01 1.754845998007045077e-02 7.195159341386031873e-03 -1.767093933668337918e-02 9.373827813967626488e-02 -1.355752544109167790e-01 4.828187511086147964e-04 -3.412491220007731613e-02 7.484895820895046126e-02 3.625215666226856703e-02 -2.482929552857552485e-02 -5.637221391448601904e-02 -7.930442739874194683e-04 -2.531155175674011659e-02 8.237419601008023895e-02 -8.814313139954794984e-02 6.545970187000529905e-02 -9.966297758293054046e-03 3.844984908402728635e-02 -6.733518669644034636e-04 -7.354647998608393467e-02
-8.770128874632861227e-02 1.356735558926365770e-01 -6.632239223236263692e-02 -8.422575530343333339e-02 -1.793175540238022350e-02 1.194350140251861508e-01 -1.256718832304390236e-02 2.697489402916957574e-02 2.814165606086241334e-02 -7.051530898481089826e-02 -4.609874387310412824e-03 -2.382121876697899238e-02 3.394345754139358601e-02 1.757492275992966757e-02 1.292867317112197240e-02 1.138570914458807148e-01 -6.166707871663629908e-02 1.954484312578220473e-01 1.626743170898652946e-01 1.466269474438545994e-01 -3.837949105162498376e-02 1.158621959136839769e-01 -8.646900475249197360e-02 -4.920955011153618081e-02 1.310812802020168422e-01 -9.160309302335425952e-02 9.282251085967196946e-02 -1.460286482452872459e-01 -7.502870293218730224e-02 -1.049790310900695633e-01 -2.570491287311310255e-02 -4.442784536484981062e-02 -2.624586709923500474e-02 -6.044955506966458864e-02 -3.082988229996595428e-02 -9.678613730736196352e-02 9.524226907972907150e-03 -4.026164405218481644e-03 5.269396640397873421e-02 -8.573339451591348304e-02
-1.667461634159873992e-03 1.288226139963643060e-02 -1.998677031748027216e-02 1.641480607174817391e-02 -8.827743782165692332e-03 7.774202280702445511e-02 -1.672769679990866384e-02 -9.513927753145056451e-04 8.921503858453461167e-02 -1.144341885760503767e-02 2.007188359258842494e-02 -1.463596317055190429e-03 -6.331658731357970270e-03 1.331969856509369193e-02 -6.341201320694011580e-03 5.740920893645705229e-03 4.895539694757003631e-03 -7.728125914547125108e-02 -2.811699293605184058e-02 -2.010807140576012161e-02 5.578596044649944234e-03 6.062290294650610027e-03 3.275012952912195047e-02 -3.145778025029632996e-02 5.520351185787762682e-02 -2.336745961235051940e-03 -1.843997231345917420e-02 -3.051506291273262811e-02 1.891401453624017015e-02 -2.629733573295126720e-02 3.674379600944280202e-03 2.041260065004436158e-02 -2.888250638440381310e-02 6.509687815989086742e-04 5.443772318249142685e-03 -3.384478318265144586e-02 -1.618547237227223670e-03 -7.386410722346659422e-03 -7.283127962773648482e-03 -1.662898539293733262e-03
4.150693670891333897e-02 -1.946066434907893147e-02 -2.700454044837202663e-03 -3.557740057392674848e-02 -1.553671982534948585e-02 7.784187736874097208e-02 -1.465018435043264310e-02 -2.554899104372328547e-02 -1.559683918144151860e-01 5.715595380273949533e-02 -9.309882376722956876e-03 -4.969849765756422823e-03 2.099093231040384186e-02 4.887518567559426264e-02 -2.182281185078425653e-02 2.063915031857643800e-02 2.040050809770073068e-02 1.566414240938496238e-01 -1.724237902771525279e-04 4.556073158711602955e-02 -5.761755684394124187e-03 1.323762599729934146e-02 6.777728987839271816e-05 2.352326036101727927e-02 -4.769611627590148589e-02 1.504191147293553743e-01 -2.455557896332918877e-02 1.409915369490856440e-02 -5.625889881899898831e-02 -1.077919110476707049e-02 7.707106708613954867e-03 1.277420879745021741e-02 -1.148770300545766745e-02 -1.014339577671631160e-01 1.450961542109425453e-03 -3.935502108217246720e-02 -3.228295676542859705e-02 2.475400828113834880e-03 -1.427459461265907260e-02 -6.576376204679923454e-02
-3.748640135117690952e-02 -3.822608928167795656e-02 -3.651276182746031329e-02 -7.372488517178027792e-03 1.192258484077228682e-03 -9.425169441782792201e-02 -1.017022879277658561e-02 -1.053896063036243308e-01 -1.480591149692107866e-01 1.117602936986054202e-01 -3.121566508111224547e-02 9.903272737033175233e-03 -1.991551265564517684e-02 -8.497632750217477826e-02 -2.168551598823037843e-02 6.377355918710940486e-02 3.190390692057296640e-01 8.113807355009830524e-02 -1.075110296197332935e-02 2.736436154299239365e-01 -2.812023327362137698e-02 -1.034622932312606429e-02 -4.025021343219573750e-02 -1.342181656568088022e-02 -1.018538382231480161e-01 -9.431681747619696105e-03 -9.646914354170117722e-02 -8.576153532352488035e-03 6.394462279586907161e-02 3.648112651013945412e-02 -1.786711115119335100e-02 -5.570164149737990428e-02 1.145510601032329739e-01 -8.990969526179742877e-02 -6.768270537614766436e-02 1.981312424545002282e-02 -1.040827558279851239e-02 3.086553844043394873e-04 1.061224244588983151e-01 -5.619907631741517980e-03
1.163795982183545713e-01 -6.775547652107755114e-02 -1.865384003048560155e-02 -3.093857918768236695e-02 8.949487057473561394e-03 -1.104474020709105830e-01 3.255429768066293167e-02 -3.200300960462608424e-02 4.522591551162308959e-02 2.074479830701710451e-02 -9.073979430121123860e-03 -6.881708389594815879e-03 -4.029156388984335077e-03 9.305815154285410062e-02 4.867129485794042393e-02 -1.496196314911683867e-01 3.352414331998620350e-02 -3.912514691291363311e-02 2.636549312056663246e-03 -2.574494606445499462e-02 3.918928407380608409e-02 -3.449263523419310307e-02 -5.485067826808235486e-02 3.453955862475008298e-02 -3.750634665433359022e-02 -2.466282017011478533e-02 1.545074084071400844e-01 -3.324721930736387193e-02 -4.697678825881763942e-02 -5.390865641568192562e-02 1.610934779509938242e-01 -5.731771247520335566e-02 1.509056143393416594e-01 -2.970398673785323157e-02 -5.111670325341088200e-02 -6.576328026637717761e-02 -5.976093623825302209e-02 8.241787940944636515e-02 -1.469432574639857082e-02 3.387750650451562540e-02
-9.270558031357893636e-02 -3.379065180062415519e-02 -1.059159505191193014e-02 2.743594266349514300e-03 -6.041856939985241516e-04 -6.975694202815747869e-02 1.763941433327341837e-02 1.383832005741137891e-02 9.152873902055677288e-03 1.411621328279203183e-02 -1.611601039070839972e-02 -3.568696510041738119e-03 -1.585350238511137183e-02 -3.087362705214928560e-02 2.859145395830173762e-03 9.873506368948840872e-02 6.898610638097638081e-02 -1.434354618358269287e-02 -1.623578053942722685e-02 3.614532709302239934e-03 2.350101934445649951e-02 -5.694055273789131594e-02 2.047788064705517025e-02 -8.743632271093834327e-03 -1.186830125445696854e-01 4.342379549630345087e-02 1.459847169726227398e-02 6.260589144192916719e-04 -2.704711990533562559e-03 9.833600362876566969e-02 1.126304669731563804e-02 -4.235777346196721929e-03 1.222009966972098516e-02 3.379067069871948686e-02 5.790942941520419579e-02 -5.854660156178353309e-02 -3.556416739960256701e-02 -5.141695753759529565e-03 -9.330635371375741241e-03 5.649916469937991959e-02
-1.214784453010192417e-01 2.821928173646305951e-02 -7.910354742902098168e-02 -5.190889799801524929e-02 -1.753676147798217261e-02 1.244784197276111726e-01 1.739100155313372947e-02 1.406741243938444685e-01 1.346151374064978590e-02 5.379466262149914905e-03 -3.240192871181300088e-02 -5.750952649030230748e-03 1.463526918790447780e-02 5.533676950908246635e-03 1.361143762172315787e-02 -1.105255178587795234e-01 2.320291640157615652e-03 8.884316675236234029e-02 3.905079176731227064e-02 -5.328050250971886476e-02 -2.487414569840844074e-03 3.175009251563762347e-02 4.160593419448881808e-02 1.856330779566843850e-02 -3.292869326952417575e-02 1.535958508415657432e-02 -5.579415729580870786e-02 -1.051291681229936659e-01 -2.890955428111501371e-02 5.817857109893258966e-02 6.341656446434869310e-04 -2.958642229605855031e-02 1.256405518156325785e-01 -7.617032288756181435e-02 5.776252987690303625e-04 -5.473614199676608491e-03 -6.876112466011671809e-02 -7.127302108201549573e-03 -1.059212543546059551e-02 1.090381782794720283e-01
-2.083564431863504929e-02 -4.333147281916081839e-02 1.104413144237646749e-01 8.496094423785223448e-02 -3.666009745768688405e-02 -1.582271110465682459e-02 -2.351064128860015298e-02 2.161082258336137138e-02 1.625196122893278750e-01 4.905962052414568342e-02 -3.015327537966190630e-04 7.158039569715461160e-03 -3.653768414511825418e-03 -4.102672313385123670e-02 -5.789963387115641159e-03 3.016566216702382813e-02 -4.020826825144022815e-02 -2.540176376857531393e-01 -1.560582029258731317e-03 7.787494311005219681e-03 3.524690167779852279e-02 -1.840605718950373559e-02 -2.551826116366850625e-02 -7.783522159012556951e-02 3.523187768076126852e-02 3.054497611822109757e-02 8.926355227617446125e-03 -1.085599814459647580e-02 5.125668708912112063e-03 5.811385672105410030e-03 1.487888667205992076e-02 3.132477977695755089e-02 9.554942738121269263e-03 -3.214672917490894732e-02 -9.799252400635651006e-03 1.876190911409889375e-02 -1.865850443011455792e-02 3.614163713388023232e-03 -1.168966567925228649e-02 1.890337521101194060e-02
5.554714678291979013e-02 -1.001770023186450975e-01 -1.174548034438835237e-01 -4.079145150004509501e-02 2.702118098523731068e-02 -3.694175409526119502e-02 -6.244943651680529700e-02 1.100904639637475674e-01 -5.436603572118530597e-02 1.101800692507954177e-01 -1.011610973407771168e-02 3.351593214572521576e-03 -2.532786023066446388e-02 -2.429372783332356678e-01 6.260035503962562385e-03 5.341890008757527869e-02 -3.002925024445322194e-02 2.121332041292576520e-01 1.882725932682969075e-02 2.966682976152145226e-02 7.393806800830297898e-02 -3.891364377197924218e-02 -3.285189323737235795e-02 -2.616989107994937072e-02 -4.956245328099023739e-02 -3.637266779010055878e-02 -1.367809686678310953e-02 -5.911174942422488254e-02 -9.574342857154034825e-02 8.341267903033044995e-02 -3.747904066082913266e-02 7.239264529464679854e-02 -1.716422120775849824e-02 4.551989672059392894e-02 7.694083175800843499e-02 5.296003775277628722e-02 1.074981218190134424e-01 2.059972554083145876e-03 1.370114535242166094e-03 -1.495098244968110640e-02
2.731094860497615406e-02 -1.772207192880362325e-02 -4.000037248145520315e-03 -1.214596078341552247e-02 1.764926355692821372e-02 3.529772597869123424e-02 -7.889182937678408669e-02 -9.033977528383968503e-02 3.869083268839339923e-02 -2.058286285061894979e-03 3.306564661721341641e-02 4.498093923004144352e-03 6.091497329424653759e-03 -1.653000146780505414e-02 -9.827504439632999203e-03 1.511592344074217387e-01 4.905172327011032146e-02 -5.015064685239421782e-02 1.040345811219109753e-02 -1.036786724715012091e-02 2.225203809205514652e-02 1.563808292843707048e-03 3.618888304606673184e-02 3.823343304062853769e-03 -8.152629918849046975e-03 3.455964218536031890e-02 -8.369223976026591650e-04 -1.871380761388544839e-02 -3.890970463458328678e-03 2.706523505200127133e-03 1.063466642095233818e-02 -5.588259704059932165e-02 6.025555647649680213e-02 -4.168431594009604918e-02 2.225568686834031307e-02 -2.130270554819185466e-02 -1.241939373209661156e-02 -1.776168724272108104e-02 1.894990272266058482e-03 -9.667455214156464582e-02
-1.565616485782741346e-02 1.776402120553221414e-02 1.976149929119669704e-02 1.730990280718120236e-02 3.047856076464651280e-03 -1.700038186604788332e-03 1.197357972184653115e-03 3.106077594073624118e-02 -6.383449522963757783e-02 -4.272986765792438461e-03 -2.751618881439245445e-05 2.787263891219047413e-02 1.114514536898840100e-02 5.561891459964279222e-02 -1.425697928694585198e-02 -4.619174961902067916e-02 -1.456681102130577207e-02 1.262301168417313477e-03 -4.350924793621921589e-03 -3.587719006330047922e-02 2.295507650762442647e-02 -3.261421696693474204e-02 -6.887160488489099675e-03 -6.231201765516235919e-02 4.106455456282884220e-02 1.911778450162580911e-01 -1.428444756663302569e-02 1.527006784741241283e-02 -2.543822269435717584e-02 2.923484797537485511e-02 -1.658873155658217510e-02 -3.375594532473191745e-02 9.215097295370504316e-02 -9.737639118328417220e-02 -7.910899838148600927e-02 -3.174098540689157533e-02 3.924247584913560793e-03 2.262335009519646223e-03 -2.412353582279309298e-03 1.917396601950032906e-02
-5.083890311400277723e-02 -2.054098414472213530e-02 -4.508026692421163856e-02 -1.554735198853722002e-02 -1.051915491567584349e-02 -2.042589632052513662e-02 -2.854195300567638136e-02 1.178934315731530562e-02 1.929993855791595214e-02 5.122106669419913133e-02 8.668265233367335523e-03 -4.251676063438165551e-03 -3.540718938341146527e-03 -3.849779948624133807e-02 -1.046301667145041643e-02 4.229293690724285348e-02 -2.048156075653740152e-02 9.821562945533479638e-02 -2.954034015437033422e-02 2.841391140966981893e-02 1.107062403187342343e-02 -3.503642508197737926e-02 3.073261841194065841e-02 -5.366720187419764254e-02 6.470537294259116889e-02 4.852074906335007536e-03 -3.011199535881274245e-03 7.377136415791794508e-03 -3.257896460929710341e-03 2.866914119342060807e-02 -1.220890286985201962e-03 2.817239483604157615e-02 -6.956610128193951859e-02 -1.026540528281497371e-03 -3.176298579866526639e-02 3.210641616757805433e-02 1.577348032671913383e-02 -7.278322221397193377e-03 -1.019344940763914319e-02 3.093028431427055636e-02
5.800173686875018803e-02 2.482911343802531381e-02 3.538077366878901106e-03 5.289349710463249477e-03 -2.385076733584804570e-02 1.507687888401726059e-02 -3.542484952869844744e-02 1.749170540293689541e-02 1.381937031702898666e-01 1.942878275934681125e-04 -1.742195844389476597e-02 -1.424997264736614991e-02 -1.209034868546536752e-02 5.399890874386755781e-03 -1.099759428081397220e-02 6.263408685727299419e-02 4.270951869609676543e-02 -1.769746639997624160e-01 -6.094874487222864956e-02 -5.778597882456447399e-02 -2.547715630579586860e-02 -2.912818341246403361e-02 -6.721296194997769535e-02 3.897648560531608714e-02 1.668470904383413389e-01 8.512659955606687034e-02 1.919483045010670144e-02 1.245397604614844611e-01 -7.430117930155693759e-03 -7.194108630023356155e-02 1.947076316604734458e-02 -1.681288879080090892e-02 -5.712280652990900202e-03 -1.744147054815417888e-02 3.621544712303094438e-02 -1.165069057215197407e-01 3.443674241787907098e-02 -9.920041197693055604e-03 -4.208101472146241924e-03 -1.166299954144411760e-01
-6.356431950910051976e-02 2.702922912763502331e-03 -1.941863436544010238e-02 -2.789291520167526059e-02 4.074936848293223002e-02 -1.329156057469684238e-01 5.527280708660370356e-02 -4.788214111381507154e-02 -8.688346455039790139e-02 1.455578359503061914e-01 -1.100242392229992166e-03 -5.398138709434061435e-04 -1.224851481243282268e-02 1.023622113269224837e-01 -1.109218239312504371e-02 -7.655276742436639692e-02 2.365080832760591695e-02 9.278482323250486496e-02 -6.029319824497735014e-02 -8.104229368834862945e-03 -2.494024585163179264e-02 1.129949947526167481e-02 -4.143376822099428120e-02 5.269043015000459546e-02 -5.913861895965696197e-02 2.733381754052037135e-02 6.774412007078799841e-03 1.761531085060946689e-02 -3.466815187531002707e-02 -7.959170614475607336e-03 1.356471092130409790e-02 -1.820028635572565334e-02 5.951192017478592472e-02 -3.696110273592598944e-02 2.242723898050476630e-02 -3.747860887197347612e-02 2.534956727444825919e-02 2.678273724210615634e-03 -5.071418927113254910e-05 1.069927382508526759e-01
7.203662628484396035e-02 -7.195406367733879482e-03 1.260488425774080982e-02 -1.597712557095873689e-02 9.984027786684791794e-02 -8.619273576190794595e-02 -5.294731998030773740e-02 -3.430046885073012586e-02 -1.536205332790001321e-01 8.638462413896808023e-02 1.624736156834497968e-03 2.850377434038598237e-02 5.914947703413713648e-02 2.319624053247741971e-02 4.765893990853167783e-02 -1.830569856711395937e-01 2.988464076820136067e-02 7.009252837697030336e-02 3.168760646701281741e-02 4.470535185371446452e-02 -5.960115484282893505e-02 2.792060882394309732e-02 -4.289937903811183451e-02 7.146488260511189849e-02 -1.561471375320092059e-01 1.428845218618157720e-01 -1.009940041542702407e-02 -3.339640480682375123e-02 -3.619168842819763671e-02 -4.184378718149952409e-02 8.086261343987748845e-03 -9.585484811524663806e-02 -6.668757196396038478e-02 -1.308548010866725786e-01 2.275361039285556108e-01 1.633572049045836361e-01 6.475912801386546347e-02 -3.732387406558143692e-03 -5.848397162458839754e-02 -4.429531154495422451e-02
-3.737107929999055472e-02 -3.362517870089766492e-02 1.120316106010025778e-02 -5.453591463974444276e-02 4.557052017319757758e-02 6.921303335808126622e-02 -6.664742051862095062e-02 2.342976529581551615e-02 1.761711997164056021e-02 3.145209070446669530e-02 -7.020411785028594052e-03 -1.440958784104211243e-02 -9.961480408860193952e-03 2.066287165334566509e-02 8.613298138788711561e-03 3.471820687767124269e-02 -9.893949531842483047e-02 -6.670042206783691197e-02 2.179636997961241843e-02 -1.552876287600420645e-02 9.614227342431542036e-04 -7.451803073839358138e-04 -2.733994051044589570e-03 -1.171532616272444663e-02 1.718666769110439030e-01 4.046563759892191081e-02 -4.621957901823284948e-02 -7.586848136306876579e-03 -4.257329384798660965e-02 -1.964040522318230564e-02 1.352629832676996088e-02 -2.410439332224630082e-02 -5.322321048324683834e-02 -2.711679524701669439e-02 3.806915547686468004e-02 6.344332356625914660e-02 4.561284976656233836e-02 -3.044908551689852038e-03 -1.309593770980550624e-02 -1.682176076083980116e-03
-5.905521906462783688e-03 -4.356439478737011289e-02 8.871691735802952894e-02 2.291310938519325324e-02 -2.780588580277349245e-03 -5.484253196356923127e-02 2.045147424364014352e-02 1.219686142448260339e-02 -3.784332083178197637e-02 -4.684159806230159956e-02 -1.642977322455929992e-02 1.826984107847240066e-02 3.176620017581267396e-03 8.350663952922630917e-03 -1.607268426973675404e-02 7.828935313974144661e-02 3.159622742222108205e-02 -2.195678647714575243e-02 -1.834210944342777594e-02 3.450145377216992659e-02 1.685063685182521323e-02 -3.529477647958338075e-03 -1.463243007335356290e-02 4.296420538501917463e-02 4.659551243221018990e-02 -2.815106989123091104e-03 -5.450334338355206781e-02 -2.368183977829002931e-02 -4.166563538843567199e-02 2.801975278122493737e-02 7.170736889538331660e-02 -3.269455908643723735e-02 4.758857500154711068e-02 1.676899931616356310e-01 -4.203709860383407666e-03 -4.634261989555635286e-02 -1.492676560178879570e-02 -1.341641372616304319e-02 -3.693243902939017959e-03 -2.191941114227353993e-01
1.046184337975856610e-01 -4.665895012317610585e-02 2.298701605427371994e-02 2.298676075674671929e-02 -2.075671394205744896e-02 -7.512385057462442339e-02 3.622743159319070927e-02 4.912420766575422565e-02 8.265369317543437566e-02 1.522628337676784974e-02 2.150916121923537525e-02 1.426574325623209197e-02 3.808379802655406416e-04 -2.084106027909419200e-03 -9.902482168329175896e-03 -1.470549630744929226e-01 -3.028047519177021890e-02 -1.280653628382276699e-01 4.968642630947157045e-03 9.436730786801140677e-03 -5.749747055684890917e-02 1.124642254405182895e-01 7.155837628792395544e-02 6.154269409947137753e-02 -3.819177074247327025e-02 -1.943783682696249935e-03 5.418807202040327314e-02 -6.827642078272867787e-02 -2.838909690342154499e-02 -1.002034285433615717e-02 -2.001086134229087404e-02 -2.070827354244822449e-02 1.598108433082228233e-02 -3.227006835173432814e-02 -5.774267267217533285e-03 5.817751922467715407e-03 1.500971628522153600e-01 1.122029729615982296e-02 3.197457194301813257e-03 -1.274428037707710515e-01
1.350829509112952687e-01 -4.137312527132500778e-02 -1.109217925810559724e-01 -1.099438150257771030e-01 -3.411759413636321348e-02 4.674919578458754110e-02 3.612621418463476258e-02 -6.407744159651056204e-02 1.769128885888208991e-01 -7.724790123941339959e-02 -8.352505198488685209e-03 -4.396419815052837222e-03 -9.282222882559013413e-03 2.365283887123292017e-01 9.019491606451685017e-02 1.329634777497417375e-01 1.641506493288527255e-02 -3.206953771759524230e-02 1.054570028944080279e-01 -2.511796247476945701e-02 -8.993995272818733344e-02 2.683538463883761160e-02 -7.594251822517315842e-02 4.117810921069876146e-02 -5.495865949384144168e-03 1.141046683352776869e-01 -2.902594896176065309e-03 -1.451741898488720095e-01 -3.732126224042605495e-02 7.887428990112795024e-02 3.628547656958880374e-02 -5.954073374021510989e-02 -1.517665930227481662e-02 -1.223651353296427956e-02 -7.502513771208958737e-02 3.255534860200776093e-02 2.147288768782016147e-03 -4.498109706638066772e-03 -1.275253784835103134e-02 -2.555042721800330763e-01
1.740675418273544828e-01 -6.104278848875704933e-02 5.167193969482394844e-02 2.350205330285288358e-02 2.815634407139101097e-03 2.492237716257442864e-02 3.011048058056703391e-02 -3.529192892238430801e-02 -4.625146660926720416e-02 -4.524352000171034949e-02 4.243479510305465073e-03 8.214281508883786165e-03 -3.207324461703481983e-02 1.016804894828477468e-01 -1.023252644984029743e-02 -5.948210458279528517e-02 5.402002012972688394e-02 -7.162803648811058577e-02 -2.602074183374818162e-03 -7.301547244844214246e-02 4.795561586071224458e-02 -3.248919968381077522e-02 -2.500138969691910809e-02 -3.258569257060274504e-02 4.414861350280234464e-02 -9.722378618431353273e-03 -7.364720072317090631e-03 -6.606916376611500497e-02 -2.795420886492431048e-02 -1.454666314504070995e-02 3.675064158818473758e-02 6.344400505662510514e-02 -3.984894436469352957e-02 2.440784529978669570e-01 -7.497610701598841909e-02 2.723557114592210088e-02 -1.956616567327014444e-02 2.390767621735478965e-02 -2.550909496974053392e-02 -1.502719827430971933e-01
-4.973773332242396178e-02 1.324354472620741310e-02 -5.431885152247462045e-02 -4.530097948786639128e-02 -3.435915989251014241e-02 -3.031602160938476689e-02 2.272663615044078454e-04 6.715116988337724302e-02 8.140316962087187913e-02 3.517547014757262114e-02 -1.257795941487961644e-02 -5.365448326302837273e-03 9.152404561934298841e-03 -2.269525475447592769e-02 -5.732390755693843841e-03 2.452024566451865562e-01 -3.971832883382529072e-02 -3.561483381936706577e-02 4.107341475300663181e-02 1.629596960007863651e-03 2.846519217320305981e-02 -7.565289943468236911e-03 1.846335422821501759e-02 -3.641892147126921109e-02 -3.205173019448821770e-02 -4.606791477034984095e-02 -2.989782614510450715e-02 -1.208272929376496690e-01 -1.101180969423161578e-02 1.034601508793210611e-02 9.279169862198876836e-03 1.704903378558718374e-02 5.837279237089585543e-02 -1.962604178131063457e-02 3.250845081218642352e-02 2.887297232850521977e-02 1.318192507790654465e-02 -2.934292218666863065e-03 -9.826648779954947309e-04 -6.767665361261564205e-02
-1.370065905353374247e-01 -2.544246541848818599e-02 -8.743152610753370316e-03 -2.219056091981071177e-02 5.024295084888252827e-02 -8.958116029893978260e-02 8.470093460485134118e-03 -4.061844144360268749e-02 -4.030276039068378391e-02 2.271980172763594236e-02 -1.594828942605818964e-02 2.062525466366703711e-02 -3.005150773236355422e-03 -3.009205879853176641e-02 -4.338477545343129684e-04 1.132088651174332616e-03 1.846972292851973077e-02 5.833160402265445688e-02 -1.715278333134052577e-02 -7.869626329260697925e-03 2.181872374051821092e-02 2.838894814026193814e-02 -1.448583316820533816e-03 1.495617237970135217e-02 -4.581768465196194018e-02 4.756476966003046758e-02 4.589794981486742913e-03 2.414573324621451661e-02 4.592194540707501133e-02 2.259535138479938643e-02 6.379039937188193780e-03 2.935821833301788166e-03 5.288949557212899166e-02 1.226410366583584148e-02 -8.939700270866000062e-04 -4.164364626648014121e-03 6.203886927252334066e-02 -3.635831822931591319e-03 -1.548171771116546146e-03 -3.058479127693237640e-02
1.097952194933022180e-01 6.396232739377723936e-03 1.905778947302222762e-02 3.004447150943525408e-03 6.003545126452942624e-03 -6.376787858619969475e-03 1.183031947758019127e-02 4.310106858982798439e-02 -8.160345746724230465e-02 4.420013678212702385e-02 1.617102038097208844e-02 9.452968462377231082e-03 -2.082547354702526943e-02 -4.532472818062543291e-02 2.008367923207518297e-03 -1.832052541206633245e-01 -1.527721024817839043e-02 1.303772858547985469e-01 -3.020990638941409984e-02 8.818629227935981252e-02 2.217917960864002058e-02 1.401842732933356039e-02 -4.140840881363171827e-02 -5.761577355209701601e-02 2.223332247973512366e-01 -2.419091833044550999e-02 3.254569823941409062e-02 -1.288263818684625139e-01 4.243651098726599485e-02 -7.411052579278924746e-02 -9.098883337187637504e-03 3.715741465845735086e-02 -5.778628500258447404e-02 -7.327148635178640235e-02 1.268598766585058435e-01 -2.879871964693351410e-02 3.433098372106139617e-03 7.452279613313770451e-03 -4.658677816729251547e-02 -7.348342532279582284e-02
5.098955783174857065e-02 -5.981774130113927043e-03 -3.065085212483470434e-03 3.173071786221672713e-02 -1.755324536686710124e-02 1.989963973559006824e-02 4.118464752621486813e-02 -1.699122965020958415e-02 -5.041808616115691505e-02 -2.725855882069977421e-02 2.243988857349051708e-02 -3.294991145291118265e-03 1.309686178517291757e-02 1.182337484106867325e-03 1.199907411294486893e-02 -1.052564512607060687e-01 -2.136449119629277998e-02 6.080066862385392901e-02 -8.814873623873564767e-03 2.516261954109797264e-02 4.813529098481979934e-02 1.524400383437887231e-02 -2.922534512244862048e-03 -4.853156839844204734e-02 -1.212307085946025785e-02 4.455599869554309825e-03 1.573679972789776907e-02 2.261678562983721746e-02 -1.306936918892100639e-02 1.166775047556966108e-02 -1.029925334612401960e-02 -2.966826481601367999e-02 -8.642042552591642102e-04 8.197285540302905182e-03 -2.510300222390903294e-02 2.939758927404435146e-02 2.116803736929841195e-02 -3.328961852577456623e-03 -1.346277719820653668e-02 -3.573336256333740218e-02
-1.331571480858242396e-01 8.718465260385131754e-03 2.976367264490615769e-02 -3.063689886550234262e-02 4.027103549556834694e-02 -8.122579726864346053e-03 -2.264417701147276515e-02 1.070950080243086994e-01 -1.077418298760573906e-01 4.146087743659478131e-02 6.816576813932606616e-02 4.724930379655922774e-02 -1.836868079976913468e-02 2.436043012733726809e-02 -7.574211546859523775e-03 -8.853780580129227973e-02 4.438328593687632974e-03 2.082265516406327233e-02 -6.303161155204364818e-03 -9.231956423500293357e-03 -1.596339360445466621e-02 -3.032871457870216811e-04 3.717719200162874355e-02 1.076245258772236778e-02 -6.832954031853101518e-02 -1.883627514240816814e-02 1.295294279238792118e-02 2.608279307664663343e-02 4.831577315854929111e-03 -2.807806877148037381e-02 -2.819489683904824462e-02 3.815421937751881792e-02 -4.060679667655442415e-03 -1.920981137246697765e-02 5.370650677074817470e-02 1.221567395861561101e-01 -1.294176718646004309e-01 -4.772632565519978678e-03 1.465230390990062033e-03 4.984950800185272701e-02
-5.427253634279672126e-03 2.290515275225828151e-02 -2.981472245697937284e-02 -2.046973990655515455e-02 3.155185003320603448e-02 4.476585295173177159e-02 6.260117208746732165e-02 4.434728337087125334e-03 2.783741101116140454e-02 6.984202467497613309e-02 -1.711306871983171371e-02 -1.757274105155922153e-02 -1.015912746060293990e-02 7.895876272524502554e-03 -8.984485700145023943e-03 -8.547152182603920401e-02 -3.189088222944477802e-02 2.945116045572986063e-02 6.459562694856377241e-02 4.646507971207047838e-02 1.580074604721240158e-02 -2.621947508476560329e-02 -2.247080754249139098e-02 -4.765870266132451322e-03 -5.315812495116553280e-03 -8.204206418576094617e-02 -1.351883811252618459e-02 1.872447944456861416e-03 9.129844391848494431e-04 -2.120305798217514068e-02 -1.992701944795342503e-02 -4.465521144822607452e-02 1.938260070633879284e-02 5.992563295210934227e-02 6.022983478917266764e-02 -2.828925058303280449e-02 2.504375276183786261e-02 -7.948947935449677399e-03 -7.179108418310723751e-03 -8.507492838987323891e-02
2.179218560692766302e-02 4.133080898143651205e-02 -5.919597655278252199e-03 1.227100526023458364e-02 3.004282865916860223e-02 6.286259402700715426e-02 5.032669768869097587e-02 2.907705442418747829e-02 -4.101509830572368925e-02 -1.151274834834725008e-01 1.154881042817891904e-02 -7.521709277874362963e-03 2.136957294237684310e-02 -3.135014412998270855e-02 -1.778558169841943856e-02 -1.340297550377236337e-02 1.718216217771922905e-02 3.353373322623415254e-02 1.358749879034275299e-02 -3.747841869041314278e-02 -2.005800955516745532e-02 -2.576440568384200450e-02 3.343497422608779964e-03 1.128661837348705205e-02 4.143271032999176068e-02 -9.585317653019488626e-02 -3.302879798668166555e-02 -2.904408744913198476e-02 -4.721242929454844313e-03 1.009879126291438750e-02 5.535877100407444323e-02 -3.059315599262430255e-02 9.374188721655860382e-03 1.840249430743873538e-01 -2.264476545575466390e-02 -2.107404650964939292e-03 9.580665625143676770e-03 1.350542523661352537e-02 -1.052848894874910263e-02 -1.389860193359266916e-01
1.942744271785299542e-02 3.338169159899263827e-02 2.713279454163852744e-02 -6.416690692374235616e-02 -1.954948614552075303e-02 2.626204735323802927e-02 -5.032793747207067042e-02 8.338837668126769520e-02 -1.155191144906437678e-01 3.114016317913668314e-02 2.790006382712523214e-02 2.505968136916548322e-02 1.043564826664821962e-02 8.495465466049102743e-02 -2.341067781185200009e-02 -1.068250094465285904e-01 -8.370911297401434359e-02 8.443347721157604124e-02 -2.324315650004661615e-02 2.638765104008067991e-02 -6.574789866516309034e-02 2.782084024017046353e-01 -1.967228333282867656e-02 -3.267535757478053082e-02 1.217889054320923231e-01 -9.219606635414281937e-02 1.318532188495530610e-01 -6.370101498003746809e-02 2.355253053975733465e-02 -8.296698292424399546e-02 -4.386849980577667979e-02 -3.792342494897203015e-02 -9.399738403277188570e-02 6.617773177353326874e-02 -2.007975951827950523e-02 -1.120083452569192381e-02 -3.124027626731549351e-02 1.901360012846223246e-02 7.626617406991821613e-02 -1.147430709478824556e-01
5.651007181570409654e-02 -3.524719697861048578e-02 2.193754253532938236e-02 1.031035301482880612e-01 5.474851393763328217e-02 -8.541787982131641976e-02 1.853917790787541764e-02 3.009631474478189836e-02 -3.085458223351367907e-02 -1.126612423866192592e-01 -4.467715238763712848e-02 -3.995878310643105440e-04 -1.426136634212659890e-02 -3.406299416615444359e-02 -6.875502085254755862e-03 -3.328147350640162094e-02 1.355777795849190115e-01 -4.393417946605120833e-02 -2.642992736632089265e-02 -2.159919042609537709e-01 -6.450041975704676189e-02 -3.991430436367539303e-02 -5.549784715712654387e-02 5.210007833068440453e-02 -1.043119905841010699e-02 -3.914987506227049496e-02 -5.985945092930245424e-03 7.413130722977882836e-02 -1.335299181858640334e-02 -1.227674455623159466e-02 -3.533106896975932859e-02 3.006714149164838382e-02 3.896991865674090394e-01 1.393368530186427923e-01 -1.870814217736377696e-02 -3.538697043634594225e-02 -1.167091422946080065e-01 3.794083796049706886e-02 1.384850988203181407e-02 -2.629720557890594806e-02
9.329695733311083039e-02 -7.260684620988955285e-02 1.341868115714755366e-02 -9.613990902488715046e-03 1.118231774788715042e-02 -9.271989741239604343e-02 1.547642594924575864e-02 -7.015951009078824803e-03 1.287744769652231225e-02 7.852839198128659659e-02 -7.527806359219240025e-03 -1.043818120800789687e-02 -7.994177869659982796e-03 -4.046198167736323077e-03 -1.432152722302158440e-02 1.523559870854264420e-01 -1.078422481785570042e-01 6.051918462529140563e-02 2.597561128970238623e-02 2.902849913721215411e-02 -3.345204012419598916e-02 -1.085870592394851336e-03 3.210770958811461073e-02 -1.934677774775827794e-02 -5.637044011107708412e-03 2.078090359892207934e-03 -2.061141038043953246e-03 -1.194067833176007953e-01 -3.093922951362677518e-02 -5.179692839579409097e-03 1.491784683050090612e-02 -3.336826574710974325e-02 2.722448283355926538e-03 -9.115679859434564977e-03 6.906946608936517795e-02 -1.026587704792072259e-02 1.315952628229311305e-01 -6.033227140649643789e-04 5.337711723536428879e-03 -1.458994906077260290e-01
-7.971945525667401000e-02 -1.228874995891583895e-02 3.945692285121183557e-02 -2.206515748261279192e-02 5.618791367001363390e-02 8.123219516591680123e-02 -6.034428628148418364e-03 -8.096725414501559914e-02 2.624787121696580544e-02 -1.238228930663221213e-02 2.547057107930564279e-02 -2.965370021869419195e-03 1.035836983481311369e-02 3.112709322578779622e-03 -1.556413570214443091e-02 6.233092770544636230e-02 -3.291304874957200199e-02 -8.373160882815856854e-02 5.507298765870586449e-03 9.894048014554113896e-03 6.315796584548193961e-03 4.827566069984922520e-04 -5.376196784951510488e-02 2.630833471820994557e-02 -5.059529147176158176e-02 -1.347396806482340989e-02 -5.879661380124280579e-02 -4.362738649063969965e-02 -1.315430604075356995e-02 -5.493360906577537950e-02 -6.346106426326085341e-03 2.675644029796434356e-02 5.545566066589689008e-02 1.907625156993267290e-01 1.272675404319659545e-02 -5.103699412313170321e-03 -7.457964756661153438e-02 3.537266270890764962e-03 5.174394986868759150e-02 2.911579188706519411e-02
-1.259331862260394501e-02 5.367093677203093466e-02 -1.085656791283066101e-02 -1.576306602685659947e-02 2.789383456836563857e-02 4.604725481247362584e-02 -3.580867340364236873e-02 -3.249122553324344798e-02 -3.681399698987883329e-02 -7.849521156618681494e-03 2.128242937650371563e-02 -5.776667524159980263e-03 -6.584764470331123769e-03 2.209842536134636742e-02 -8.757044407625362570e-03 -1.328732108354967467e-01 -2.074613878979141967e-03 2.019883470487504953e-02 -1.895007026451442020e-02 3.879111936969763252e-02 3.544864673899022350e-02 -9.828984753129590621e-03 6.399656633826060481e-02 -1.667821854850667918e-02 -1.095103669315240780e-02 5.776259439790223937e-02 -3.152300357787497093e-02 1.083612586385022079e-02 -1.688835847164250892e-02 6.417303946919577541e-03 -1.615088902718498157e-02 -3.384393726781365075e-02 8.111068009763773567e-02 -1.958778029237245519e-02 2.493599415951876230e-02 -3.510564774527951543e-02 2.044470456074668624e-02 1.722248475689743333e-02 -1.295017830456197602e-03 -2.911232059187672527e-02
-1.707173082162696462e-02 -2.441340817606317461e-03 -3.319915525533734257e-02 1.873931734754330503e-02 -1.413684910329406769e-02 -2.492041442868545009e-02 2.670515340874300009e-02 -4.403030386869813406e-02 -2.771426139293937593e-02 2.729987873222174382e-03 -2.601377271305977887e-03 -1.075656812787302921e-02 -4.425754475672492340e-03 3.465408786237873795e-02 -1.184160244377761850e-02 2.305574355061536934e-02 2.998950451100446807e-02 3.509030555938363882e-02 -3.510085029074838485e-03 -4.316585574257471997e-02 -2.899653575960893515e-02 -3.816690102971274229e-02 8.821430035505723258e-03 5.268670767558555207e-02 2.466526824474436080e-02 1.205926908630738925e-02 -2.405385992609488169e-02 -3.028381264325806597e-03 -6.242990283909690373e-03 2.443801657401806562e-02 5.239491764538613261e-02 5.656760754159163157e-02 1.699141546455135501e-02 -3.300992134404082362e-05 1.522460508925965045e-02 -3.025844579135226337e-02 -2.855616988234052980e-02 -1.086034661622403523e-02 -5.203135278634541012e-03 -1.959826293786352813e-02
-7.936737928116227234e-03 3.583669291220850650e-02 -1.062965717721956003e-03 5.213467689894529106e-02 -3.169645413302430575e-02 6.832894255856285237e-02 -3.467327495213812227e-02 -3.777306648514435622e-02 6.443138882672508339e-02 -1.159119396425688509e-01 9.754525396402666249e-02 -1.719794947456429902e-03 -8.519320668760926862e-02 -6.719619558893223654e-02 8.644519820123641729e-02 -1.924047885440202943e-01 -7.290717682219857720e-02 -1.590189058677404510e-01 1.940667299733200152e-03 -6.220248937828296715e-02 2.606806618712613488e-02 7.345460968877895458e-02 1.185953053625928982e-01 -7.154793107200416169e-02 6.337804261871965439e-02 -1.591887746114271918e-01 -1.041007274666194693e-01 -3.420333507066904751e-03 -3.577319593906445189e-02 1.144831784086217247e-01 3.005428402964983176e-02 -7.210434655580647868e-03 2.835247860808358736e-02 2.770176901432193639e-01 -2.732570595423463103e-02 9.759508371556634143e-02 -1.322534715218527668e-02 -2.276112064666325954e-03 -3.789475421550694834e-02 9.599875390945566966e-02
9.938560639915411388e-02 4.532669614309351586e-02 1.178615658227433541e-02 -3.567623316051626858e-02 -4.686096877343940391e-03 3.767182758418469862e-02 9.570508356397862404e-02 -2.118185906867164122e-03 -3.765299864271939162e-02 -3.585948717705107758e-02 -2.454689563984033436e-03 -1.410199150569570355e-02 -6.121386037370632992e-03 2.844879018421268488e-02 -7.978361734104297970e-03 -1.348097550689908442e-01 5.335472004232501460e-03 5.353381198630269289e-02 -5.715024893422756408e-02 1.942725758708910982e-02 -7.189402407671056927e-02 -2.738075471649479425e-02 3.668206515623999991e-02 -2.481508542381366186e-02 9.464514028965656522e-03 9.622778012214550092e-02 -1.626435012381953829e-02 -1.590821094282021675e-02 -4.740041786161598020e-03 1.128701412894483197e-02 -1.552411575352962911e-02 -7.792187568897061302e-03 -1.995039599550903209e-02 -7.195273323448778124e-02 -1.397961406954217368e-02 1.742578071728765124e-02 5.357419317737491943e-02 -1.774045330400418619e-02 -3.296121344241087405e-03 2.856547358329430616e-02
-3.353089102521324139e-02 -1.453239770867084842e-02 5.118809299873715996e-02 -3.427834524475487088e-02 -3.075930845282856888e-02 1.193595112334499136e-01 8.784703792477502327e-02 5.332211759045015625e-02 1.430557434369826575e-02 -6.002545663027660655e-02 5.394214557000453179e-03 -2.273814038127162929e-02 3.951734935801550636e-02 3.453423189408983025e-03 -1.610734362014624652e-02 -4.683054560189515991e-02 -3.682765041483133245e-02 -4.336479195042774321e-02 -2.289180961867386468e-02 3.499478096693294741e-03 8.508235410028204548e-02 4.260759822857709302e-03 -2.715998153223357636e-02 8.091064990428529363e-03 -3.474628458925813762e-02 1.730684504179615946e-01 -2.683915680546937639e-03 -4.064845088477076623e-02 -2.810037589739623407e-02 -9.126671878430279300e-03 -5.251951130176778226e-02 -1.076781748376685714e-02 7.767216535732308913e-02 -1.118583605863496394e-01 4.811245347144846307e-02 -6.382531781314863817e-02 -9.588641490269349255e-02 -4.150037737130931464e-03 -2.580572904037916823e-02 9.499150252421695306e-02
1.878155339132130675e-01 -1.661226987543282588e-02 6.684659459478349552e-02 2.906898336023173643e-02 1.418535393193755614e-02 -7.866556265014042204e-02 -5.062101456853341369e-02 6.805075845864370920e-02 1.001719074292627965e-01 1.987158127508937416e-02 -1.340863001180289844e-02 -1.606087048749282181e-02 2.377664054418249240e-03 -3.413960623139146444e-02 -1.356052721480245117e-02 -2.882724012475723629e-02 -8.271081476255121023e-02 -1.641411770478663767e-01 4.267717357945378931e-02 1.967608372190052593e-02 -5.980655437173548750e-02 -8.179448448828924301e-03 -4.211918526460902042e-03 -8.996855529509156790e-03 7.604664215108089022e-03 -5.437918967106392110e-02 -1.269502618315693221e-02 3.231219230700180939e-02 -3.997055582634648913e-02 4.086639770696383345e-02 1.806357080724362366e-02 -5.435351622934486704e-02 5.087084198381187222e-02 1.938033238939178282e-02 8.233600370761579024e-02 3.801498134316699806e-02 -2.671422223785445763e-02 -9.133724844826355757e-03 -8.721535105872205845e-03 -5.428035882952816221e-02
-6.343545232011234269e-02 9.957766339092531671e-03 6.048642916981093395e-03 -1.073389905341265958e-02 2.741384237321056391e-02 1.089707423647965773e-01 -4.212213963436550745e-02 -6.536027480998847505e-02 9.414569787962771830e-02 -1.233122102932034808e-01 -5.309166770593604263e-03 -5.420329135891303191e-03 -8.257417493415577028e-03 -8.452227926560211893e-04 1.018791331337900053e-03 1.861713121486514508e-02 -4.131534706001214335e-02 -1.116727757117618736e-01 -8.935809517590237450e-03 6.623074326124843425e-02 -2.765356688342892125e-02 -7.229445660894224905e-03 9.071566397245238098e-03 -2.412672519855341494e-02 -4.056851638722522996e-02 -4.914142846861733332e-02 -6.657900656065407312e-03 4.804392328607259843e-02 -1.185373244763877724e-02 3.800104745674855178e-02 7.604553053464445551e-03 4.087508235020680808e-02 -2.644805975576745502e-02 9.408751489640139465e-02 3.377034586218517070e-02 -3.633689955398216459e-02 1.006674645031989390e-01 -7.011414461300334404e-03 4.035942631117457602e-02 -2.113654773144633958e-02
4.479351438944736974e-02 -1.158476288565693166e-02 -9.154094202531373389e-03 2.746984928821974078e-02 -7.706597659624009854e-03 -5.763093924849852639e-02 1.557998435205120921e-02 -8.000661399231474846e-02 -1.509251963526955613e-02 1.648685260472490532e-02 5.840824967370179810e-02 3.120100958031869764e-02 -8.519619479153962144e-03 -4.124296115438107267e-04 -1.199915840864037089e-02 -9.918496364715316538e-02 -2.502184113462507797e-02 3.340148200975603249e-02 -1.862286021228481969e-03 -1.095071793180242602e-03 -1.578686338604349398e-02 -2.751338659366603726e-02 1.800099038024292636e-04 3.264840199482416799e-02 -2.831124615897069249e-02 1.028869327175081921e-01 1.176117731053485937e-02 -2.454640122621730772e-02 -1.182254074153219620e-02 5.131327713485889924e-02 5.513890351046839278e-02 8.847184412873417871e-04 -1.791054131872463206e-02 -4.701205710805543558e-02 -3.472966507443141226e-02 -4.599769833024980326e-02 -3.223607074760669305e-03 -2.730611216000958588e-02 -1.735740941158177286e-02 1.486340633921033882e-01
-4.786061894807309980e-02 -7.227850063538603098e-02 -3.450512361232116465e-02 -7.997089863671069318e-03 2.368234177657596844e-03 1.951270211914289329e-02 1.248219102977806251e-03 3.846443254687817448e-02 1.357280781558539359e-02 -2.074862187241258843e-02 -1.944730979882884625e-02 1.229351524359617448e-01 -1.342547317959578816e-02 -7.631331245371025807e-02 -3.832448202450322583e-03 1.081350895991083430e-02 1.771116146464664018e-02 -1.376942952472222023e-02 -3.910874500033387213e-02 -3.462860819253454903e-02 2.771455709373391117e-03 -6.651364808995725852e-02 -5.732311863910891092e-03 2.235494318553963786e-03 6.980335829594226660e-02 2.162114658434421965e-02 -2.517523498771808386e-03 7.607477754678765303e-02 2.441160922203303163e-02 1.105913814487786972e-02 -1.462831318751520518e-02 -1.110095071979548716e-02 3.476830672507610995e-03 9.589211653369869581e-02 -6.065347505306474540e-02 -4.119275444351106624e-02 2.926843221436327067e-02 -1.326616561363454933e-03 -1.417998502765020416e-02 3.852028186434423157e-02
-7.497940938004234168e-02 5.545218716218377336e-04 2.749964601574169179e-02 -2.983183250749397303e-03 -1.879384143808424459e-02 1.335087217438508771e-02 -1.092835894089115058e-02 1.301706377080526916e-02 1.081207779375331357e-01 1.006349856146168155e-02 1.763181240330497640e-02 -8.000594136761329453e-03 5.506154700720795707e-03 -2.482525306365954490e-03 2.539339528675693225e-04 -5.970767310956122398e-02 5.192855819219454119e-03 -1.347133640713450986e-01 -3.926446323742112214e-03 2.380015730081006583e-03 -4.417096416333524643e-03 2.637320123948935086e-02 -2.930026315810700666e-02 -2.549120430774780288e-02 3.111850160180358940e-02 -5.215812812146693872e-02 -8.481280852952672797e-03 -3.069565739327191622e-02 1.308704705814387782e-02 -3.429722849837132936e-02 -8.198679862243095232e-04 1.290449822647126432e-01 -4.122107391053117520e-02 6.172949099784010712e-02 1.202787359713349512e-02 8.877494655139998858e-02 2.364222737757772433e-02 3.672016240887128989e-03 -8.446376806885241145e-03 -4.119786645731082081e-02
4.857999960922159549e-02 2.538318049842696721e-03 -5.366769469902857304e-02 -9.028288648456268828e-02 -9.840706582640279185e-03 -3.273381813782380578e-02 8.979174877524262466e-02 6.212950153284941407e-02 1.239269868876218955e-01 1.789706660391593776e-02 -1.155809803925723737e-02 -5.015131646699279994e-03 -2.881998754939581187e-02 -1.409138814374937161e-02 5.309460386280819184e-03 -9.247220008593784457e-02 -4.490325530794637282e-02 -1.671888245515556343e-02 1.707902819387269872e-02 -7.007406764452192398e-03 -3.728462676669375142e-02 1.752495178990812544e-02 -3.005057469026956724e-02 1.370257210619084919e-02 -1.933922383650235263e-02 3.204112241104650066e-02 1.781313200054801191e-02 -4.753103070178062856e-02 -2.913259330591849022e-02 -6.154192123460573011e-02 7.515192315300721349e-02 -1.056950494192531592e-02 -6.686203011814449704e-02 2.736573243801858693e-02 1.342809992010913778e-01 7.956738726097419001e-02 -9.039237146285232505e-03 1.867380996663198928e-02 -1.776698737456916879e-02 -4.714455435294724606e-02
1.965787730859444929e-02 -6.352575938657654964e-02 1.631527526630469072e-01 1.133048751696170559e-01 1.455711738442947920e-02 -9.746569215292215371e-02 7.383008971311903236e-03 2.509413956891231798e-02 -2.094388183733882081e-01 4.042605633875258342e-02 1.176076367518147283e-03 2.307318054532505724e-03 -6.807266305077199799e-03 -6.318679272782641576e-02 -1.511931010572004769e-02 6.705760618772684846e-03 -5.764311861815446525e-02 1.337206688689840384e-01 -7.391589215063770757e-02 -4.031632749394666732e-02 -3.798972844400405613e-02 2.499686014516024068e-02 -2.449350997133615399e-02 -1.690957366357155253e-02 4.827899120036246994e-02 4.721273856148615767e-04 -1.538413490831386232e-02 7.838875693891812768e-02 -1.719302278729546371e-02 2.239678464973998695e-02 -4.657430665248036075e-03 -7.113585940155670723e-03 -4.085140926848625925e-02 6.524024906677297619e-02 7.909902527083570445e-02 -6.481059595394685069e-02 3.897595764967192594e-02 1.087280341955762855e-02 6.546370023375026881e-03 -4.593160814794670227e-02
-1.133223085758733040e-01 -1.100251467184247406e-01 4.156545050958646015e-02 6.467577529062255338e-03 8.720145142834236085e-02 4.239633675799592272e-02 -1.329344482057079890e-01 9.508746131013878777e-02 -4.087999701920874696e-02 6.159831079855551672e-02 -7.242337587106897900e-02 1.519069930570398665e-02 1.934237861125510244e-02 -7.865617960636590855e-02 -1.396962789899672437e-02 1.923820442860256844e-02 -1.896451716955751404e-02 -1.005177120259123300e-02 5.658133951009632068e-02 -6.323388797016520069e-02 -3.252160177672767244e-02 1.542569764510704454e-02 3.436422750095854961e-02 -2.203481520954206005e-02 3.695220205968524629e-02 -6.759838771755660031e-03 -6.498181981060122472e-03 7.310757135704980259e-02 -2.540702456547500043e-02 8.108594459671934762e-02 -3.988399053395652594e-02 -7.960167932362223475e-02 1.045756310128805183e-01 -7.685744160836555094e-02 5.956355330663926778e-02 5.938483777210883108e-02 6.622444013676750951e-02 5.511271131783682803e-03 3.478592495389553479e-02 -7.162467765455242386e-02
9.753948676314698474e-02 -2.969142574973378593e-02 -1.930484470912168307e-02 -1.382564529156523302e-02 3.813318628091718482e-02 2.451639645691124081e-02 -2.475720768555179918e-02 -2.570274715981336541e-02 1.001597509288767035e-01 -8.675960909694697965e-02 -4.222790566744159119e-03 9.725719978781513161e-03 -2.727812178353994366e-03 3.306991543814456584e-03 4.283933402888485888e-04 6.117650743698643118e-02 1.073430488230986239e-02 -4.805641959515302014e-02 4.303828118956583293e-03 -8.776607646724790546e-03 -1.533439440260727336e-02 -9.580950945706356511e-03 -1.897819403443404274e-02 -4.132643676442294967e-02 1.551910138794009540e-02 -5.754541567073122310e-02 -1.279257749562976929e-02 -5.010764798435677833e-03 -3.079065401196457927e-02 -9.697164937787704567e-03 -3.104222441243561777e-04 -2.800251104039324854e-02 6.447647459252105195e-02 1.111246448150034205e-01 3.143298057310584676e-02 2.091002809003550400e-02 -9.475764030269282975e-03 1.703661278040454613e-02 1.021597356579537902e-02 -1.180700214796225056e-01
-3.309197189354622787e-02 -2.692392923778052366e-02 -7.874497971865167603e-03 -3.600434661703343173e-04 3.624476359321650732e-03 -5.586624969600080537e-02 -1.877315861760114717e-03 3.344737564805929514e-02 4.692262733909893097e-02 2.326756050193690140e-02 -3.921569341513901977e-03 4.157451944923806243e-03 5.822351526331112290e-03 -2.148427920443168881e-02 -1.716104339952283925e-02 1.161442430239170570e-01 -2.395248840168416604e-02 -5.186750635049280217e-02 7.655442463425102262e-02 -3.220531868209384335e-02 2.688725305218142569e-02 -8.875658282857554204e-02 -6.240004981119232248e-03 9.599813631523476318e-03 8.983482612810313184e-02 3.946240371617821402e-02 -2.672488407413794662e-02 -1.317452901200189984e-03 3.572241749686770607e-02 6.044467176865014890e-02 -2.238086476150569909e-02 -5.312682817005693475e-02 -1.946787583216905149e-02 -4.032353084270541566e-02 -2.125151842758077336e-03 -6.691820665846172356e-02 4.675186404552407471e-02 -2.612816949182299522e-02 -1.011659887600604123e-02 2.156860395039288114e-02
2.716039939813209500e-02 3.885509938814845493e-02 -1.257397196867409903e-02 -1.856647296208335449e-02 1.610931237753893824e-02 -7.314611493754222260e-02 7.024951396536426029e-02 -3.745437547442033444e-03 7.557255205554817834e-02 5.312484958290746018e-02 8.715846511396450544e-03 2.141000976408018175e-02 -9.405149660400950740e-03 1.590868343484543035e-02 -2.310857803702528069e-03 -1.430882564606746933e-02 2.743469076551519406e-02 -8.620131354888177500e-02 1.231379513620300264e-02 1.416739134905187257e-03 -4.466200769868337948e-04 6.453466113643703539e-04 7.142229012793154495e-03 2.211046014248116073e-02 -6.751675476847136814e-02 -2.887887948946212414e-03 -3.113632996162554734e-02 -3.222534042579942859e-02 4.660567193811396280e-02 -4.567176204535593372e-03 -7.075729015334505587e-03 -2.450005704528708181e-02 -2.500008661176473038e-02 2.178467735126112231e-04 -2.022432429082600749e-02 -6.669699610272976538e-03 1.585331220990997964e-02 -4.477563752297230963e-03 -6.695587768618175423e-03 -7.165056647243325284e-03
1.773774968316806783e-02 -5.104480356041635192e-02 -1.479745692698773429e-01 1.067947721674884359e-01 -1.993950095120564439e-02 1.825022907743139439e-02 -4.269416088958852273e-02 -6.721945758355019063e-02 -1.189072020137797309e-01 -7.272287495431900041e-03 -3.363285811524230340e-02 -8.774063094367874974e-03 -2.003018282499128763e-02 3.599879076200154099e-02 -1.561569873037884325e-02 -1.536525412546124736e-01 5.364264295623222267e-02 2.387997557280825689e-01 6.522362852382005555e-03 -9.032370186687035951e-02 1.434716392289907549e-01 -1.233486287926800068e-02 9.227182394685805311e-03 -2.481840031134344149e-02 8.341765447589977178e-02 -1.180802849249279890e-01 -1.783222378803227606e-03 7.129343038200428029e-02 -5.323697568220557563e-02 4.197278942347175412e-02 -3.716053886271562107e-02 4.497016720983423865e-02 3.028872602858213511e-02 8.148942972705881804e-02 5.339196359463997676e-02 3.994143228535285139e-02 -1.129855108437080174e-01 -2.984102114489890420e-02 -8.653108420924638527e-03 9.876423512180944331e-02
3.420444715040631828e-02 1.177876708037098492e-02 -9.352921701618367722e-03 -3.261307612333853856e-02 5.387183202009854406e-03 4.233347456840704653e-02 -2.070594474559729961e-02 3.395456548140904363e-02 2.554529507112386633e-03 -5.907521031394619149e-02 -1.172975795369271546e-02 -4.663374481638118789e-03 -6.403500483411141316e-03 1.312216387445656191e-02 -2.171532287022752677e-03 -5.604608518013261265e-02 -1.127694416821251044e-01 -1.137190556239046045e-02 -8.918093386695684355e-03 2.349376199891580613e-02 1.118603972764925340e-02 8.761471599425004267e-03 -2.153406127529487388e-02 1.301419671395763911e-03 9.138096136905186906e-02 2.562023127183839580e-02 -5.222268569014202472e-03 -2.608133143156729852e-02 -1.852155201462720282e-03 2.012293546825945009e-02 8.025514541915789238e-03 2.431979087680424464e-02 1.384752759823811019e-02 -1.435666777526530165e-02 5.146437844822122215e-03 2.698812269439038181e-02 -1.986526700352390928e-02 2.460568017261320628e-03 2.800416754021489794e-03 1.594226485951794406e-02
-5.477945201306616552e-02 -6.338480642076603500e-02 -8.680777748311224382e-03 4.974517421824217744e-02 -1.711587445108280967e-02 4.373748943205486156e-02 1.141394278191329350e-03 2.110671068991745725e-02 -1.646138778279221671e-01 2.584027556208839753e-04 -2.244422435435573793e-02 -1.441613526005467057e-02 -2.042912174006044149e-02 9.199430300957697759e-03 7.988202102711816285e-03 -8.007241183458943534e-02 4.155836423052242795e-02 1.297966321509672893e-01 1.775257020465157570e-02 8.835727687610095415e-02 -3.737480698136108614e-02 2.950014028539478528e-02 -7.146881040530441744e-03 -1.585398415905545783e-02 -4.491794224066066044e-02 1.833689474771411573e-02 4.647668065389937153e-02 2.880032272203733937e-02 -6.704786340339837815e-03 -1.218082408764555036e-02 1.273580940035114184e-02 -1.066245115538758288e-02 -2.518530890147724008e-02 1.812376187245917300e-02 -1.321066614109555996e-02 -1.991431713939968359e-02 -2.564192773430876496e-02 -9.186094700568520413e-03 -8.590941544044433578e-04 1.101605095046049726e-01
-1.075481765898011616e-01 8.055224530810715933e-02 -2.699728406535446129e-02 -5.029047909935287913e-02 -5.002370294510402084e-03 8.698414439049662050e-02 -8.236102113853394080e-02 -1.309150757827888707e-02 -4.209625409554079711e-02 -9.642265432346874832e-02 -8.679083497883417417e-03 -4.922733110422507609e-04 1.663693536588095080e-03 2.238450721457666340e-02 -1.122365089870614764e-02 -1.163162978393485619e-01 -6.403919335203277219e-02 5.743771819802273582e-02 -5.791601063968849702e-03 -3.683215878847664188e-02 7.327066866481073137e-02 -1.118325292596145798e-02 -1.411232618120422840e-02 1.053671185956424859e-02 1.047408185725441643e-01 3.346497892415858932e-02 1.456333011305569261e-02 -6.498592151165727415e-02 2.831497266466414045e-02 -8.150557486833062909e-04 -5.103184617130746004e-03 2.429693822743782261e-02 -8.286772300599976743e-03 -5.025878494285405257e-02 7.189876317748122858e-02 1.148356374194097439e-02 3.604201583151945415e-02 -1.083571444850177931e-03 -1.608485647781701970e-03 1.669862908319697803e-01
-3.416902136853547899e-03 -3.154262141469770658e-02 -5.751803531933013906e-03 -1.151791527405692100e-01 -2.024784928647401297e-02 -3.078997700528707943e-02 1.147049703223113892e-01 -1.358888383835783406e-02 1.174876183591646306e-01 1.342043548121712830e-02 6.009182444104740201e-02 9.986189772781482385e-03 7.475059302856453718e-04 -9.211511610283500129e-02 -4.273674929323927757e-02 1.721968222935307269e-01 7.344291854066074821e-02 -1.135369926483871111e-01 4.059641809738716994e-02 -1.095580856453167301e-01 4.650707970403185343e-02 4.594265624008823240e-02 -2.689229475681518405e-02 3.049083428086189936e-03 -8.405054593678613906e-02 1.528999257263679787e-02 5.412253466520185012e-03 -1.836743464776196821e-01 -2.364583494448985190e-02 -1.067053960557491112e-02 2.979153929628230654e-02 5.563681800698653396e-02 6.940618826072421366e-03 -7.649249118917156309e-02 4.571642305914641602e-02 7.131581988894328261e-02 2.287536726049190644e-02 -2.479683668733176707e-02 -2.146972903848456612e-02 7.900439729235232689e-02
-3.846871344708970020e-02 2.664131203098837539e-02 2.638709144357302347e-02 6.623514064482891039e-02 -1.860984610395771330e-02 -1.172849716172512796e-01 -5.290013767507214387e-02 -4.739891999484691781e-02 -9.361841785677652364e-03 9.111545096329118354e-02 -8.428498031662342432e-03 1.251313881647252158e-01 1.167731957860728906e-02 -7.258927376269726228e-02 2.230378198174167922e-02 1.279942944138935321e-02 9.886233770403583809e-02 -4.537505999624046743e-02 -5.410170091366303148e-03 -1.832975595915206646e-01 -4.793033981392721965e-02 -1.635287684729587465e-01 -2.485485796098111516e-02 -1.426364586796276535e-01 2.957217094932099513e-02 1.026696796187072380e-01 2.442728968079355412e-01 -5.725436786430548181e-02 -1.011490110284672395e-01 7.355652272477244957e-02 -1.211710547257998337e-02 -9.710284428845812610e-02 2.214702123139971335e-01 -2.595027526553002686e-02 3.343961229881921293e-02 2.401164516560954643e-01 -2.251624917390312314e-02 -1.560788776140527301e-02 -4.333894106904724597e-02 -7.313869937422833034e-02
-6.389391303428919311e-02 -2.348545712497082313e-02 -1.093001913675629121e-02 1.493345826998507091e-02 4.692489207696297869e-03 5.593450175146999492e-02 -8.694481151840666167e-02 -9.450972746914532152e-03 -1.080832996078350677e-02 -1.884326136041026764e-02 -2.224817370252902063e-02 2.657283336676869584e-02 -2.169945177137495157e-03 7.659547360751885192e-02 -1.317528004177873947e-02 1.194063807058411975e-01 -2.212785936707970316e-02 -6.736343133819829021e-03 -2.629427624064668151e-02 -6.404899281680455359e-03 1.176650942189350242e-02 -4.477696768403612720e-02 -4.163147773875735917e-03 9.413005191414152220e-03 4.728933186606554956e-02 4.073064985030743629e-02 -8.887820499653007605e-03 -6.233178452311695372e-02 -3.052543217310618381e-02 3.795448676243447922e-02 -5.775533091959463711e-03 -2.639025065887883048e-02 2.292299487747508080e-02 3.053108938959190818e-02 1.586085254330687035e-03 -2.542456678662724338e-03 4.028115722101740376e-02 -1.241913729591995891e-02 -9.196774271729231572e-04 -1.836469711027035809e-02
-9.643549125033949732e-02 -2.585750049374569565e-02 -9.377680995730487690e-02 1.021616941774565607e-01 3.518196707604889090e-02 -5.291899193816410746e-02 5.446780768980091780e-02 1.531813727666263801e-02 -2.686230152799152712e-02 1.041525631256355611e-01 1.504628251850941706e-02 1.988650066928106946e-02 1.040538203748818738e-03 1.447869642803855869e-02 2.293364552936159872e-02 5.105609870629851388e-02 -3.728743734662486736e-02 1.455910055444666340e-01 5.001941819876816464e-02 -3.396736394830820321e-02 -6.354822409605444256e-02 -1.381991281567416466e-03 -1.974061616046192402e-02 -1.481938663434641257e-02 7.658433156716408508e-02 9.380442769459056140e-02 1.466666403444112123e-02 -2.720359012069357638e-02 -3.656059206745906204e-02 -1.054064463234473739e-02 3.814972301001033368e-03 3.355417679259298930e-02 -7.386829016278100013e-02 1.204286997670582678e-02 -3.008318430149312453e-02 -1.238687204204049208e-01 -7.673620161773217138e-03 -1.675454124325606933e-02 -1.555122258254138488e-02 -5.710127718300680999e-02
-3.293346423268633111e-02 6.851085214805828494e-02 8.471503176251654610e-02 -1.788152083520498925e-01 2.232683082364414484e-02 -1.183727189493328016e-02 9.608522054146322044e-02 -1.075795925396090813e-01 2.485903935820757693e-01 1.454618990903409036e-02 -2.514733292116965932e-02 -4.211323255744198885e-02 1.590668839567593862e-02 8.256714954931515527e-02 -2.358222074350250705e-02 9.840851616305609784e-02 -1.182055394775549488e-02 -1.021535685712333941e-01 5.572165015162960922e-02 -4.561752083287106546e-02 -4.804162104427996821e-02 7.302950806673830231e-02 -6.622094238913008024e-02 5.713419128568671818e-02 -1.005619524194152209e-01 -8.798081551577986714e-02 -5.824480515665507452e-02 -6.320632675393209748e-03 -3.646096072731524335e-02 -9.343904029488518670e-02 2.295051371833579240e-02 -5.121513516200975474e-02 1.911549198644534389e-02 1.094331842829393830e-01 -6.112862898136454254e-02 -2.126471097167660640e-03 4.131071320508371975e-02 -6.667120490297429730e-03 -3.463929797481624800e-02 1.242952649501126300e-01
2.322017996871572967e-02 -3.933169888038154371e-02 3.744336029257425147e-02 -6.211395084963039492e-02 1.941602417655362636e-02 -6.300091098698078207e-02 1.003447608068654129e-02 1.436456584353295630e-02 -4.585602214516599356e-02 3.584655769433991307e-02 1.585399620129470874e-02 6.066268697328208725e-03 -4.549215275223129559e-03 1.206786743601495210e-01 -1.058711021334949112e-02 -5.676982125738237045e-02 -3.165356863224317446e-02 1.024422149111830493e-01 4.003925522534791670e-03 -8.132028209590742851e-02 -3.374064504277175976e-03 2.190298571069784067e-02 7.549953582019394704e-02 8.063122023551685599e-03 1.643798657473450331e-01 -5.069918219032376605e-02 -3.478891169892970453e-02 -9.409626186392563985e-02 -4.328926598300020245e-02 1.108953303078791079e-02 -3.960001247111635120e-02 -1.660145034013938564e-02 -1.634834003770495661e-02 4.857853339483436672e-02 -5.086920798045083993e-03 -4.189173393865705530e-02 2.158331051325267091e-02 -1.350101199478459871e-02 -1.458395112085913124e-02 2.857655728841929782e-02
1.495711075845727878e-01 1.394726657790434574e-02 -3.320421202923062171e-02 1.083906269639357683e-01 -4.450600328083029363e-03 -1.062604205225931159e-01 6.182552434622965581e-02 2.091252800803436798e-02 1.497740820493338558e-02 7.424012437332185022e-02 -2.500669166310359043e-02 1.269948796253515290e-02 -2.129503194506559074e-02 4.654403810406557152e-02 -1.415926283469081531e-02 -2.246965033440857795e-01 -7.733794977041118235e-02 -9.877392716004115836e-02 2.069902227160603516e-04 -6.636773155714995043e-02 -1.868537443545193952e-02 2.315496490892731893e-02 -5.837316398671756751e-02 -1.043445146045621913e-01 5.501828279866919497e-02 1.198888303445058354e-02 2.270541883037680841e-01 -8.286930763081569798e-03 4.876719788005717815e-02 7.293562271075539061e-02 4.997914363633660512e-03 -4.580042141295108393e-02 4.449727660700321386e-02 -4.263863675636297285e-02 9.935613986722348356e-02 1.076121694514629509e-02 -7.027458238399811319e-02 -1.513303471477615327e-02 -4.820320988685945079e-03 -6.193747856687395470e-02
-2.566705824267579220e-02 -2.388337177911723994e-02 -5.455143418426056795e-02 -2.702056742000483527e-02 1.009338418885593336e-01 7.145401220882430411e-03 -3.128600087311643463e-02 8.586217164400757051e-02 2.673331093246676393e-01 -5.783603049902604626e-02 3.434046111920422556e-02 -1.673159467450205037e-02 -5.839359373325599296e-03 2.319432715716040691e-02 1.705923410204133279e-03 -8.274098275833641214e-02 2.684707012335661377e-02 -2.366182187329759767e-01 1.123744976399515816e-01 7.684523543767896037e-02 7.289220180930552906e-02 1.844759675223503828e-02 -1.013099422011472413e-02 1.076936969448751974e-01 -1.407978292431621703e-01 6.626517236068417416e-02 -8.345403515316976439e-02 -5.705344460600495632e-02 -1.320994040420546932e-02 -2.242378031734521687e-02 -2.706277072878325324e-03 6.144130655997553925e-02 5.159859590189052291e-03 -1.103145293158826618e-01 4.193134533642704082e-02 1.116782740995730765e-02 -4.092270986838892483e-02 -2.505306692426791451e-02 -5.034388079088464307e-02 -2.995939275717755465e-03
1.703758624397329613e-01 -4.135338002246224942e-02 -1.982241971814184892e-02 -2.290312862612235364e-02 5.217341619945917858e-03 4.653561108708118010e-02 2.069592396374451623e-02 1.461799811873443038e-02 3.119403362969973628e-02 -3.827431034886871752e-02 -8.871869165709372548e-03 3.083044926036575609e-03 7.193996131323135987e-04 -6.626179736378940734e-03 -1.987490594148683468e-02 -5.493353865479479181e-02 2.178874692540346339e-02 -1.203652841944737560e-02 -2.045690024815080728e-03 5.478158891734540015e-02 -1.240233382498458041e-02 -4.034613180182145681e-02 8.546065679256654654e-03 -2.444344542034567174e-03 -4.425987430976963816e-02 4.185287827023182611e-02 6.671678092204416655e-02 1.375718293917426935e-02 -5.776164829952593754e-02 2.953409376183580969e-03 -1.098088115225708677e-02 -4.415589392331348978e-02 3.308004316885596041e-02 9.568360077119804352e-02 -6.219572571192746868e-02 -2.893026331727899421e-03 -2.264765428916651682e-02 2.890041891411409842e-03 2.551263718279268844e-02 -1.331727265972690588e-01
3.326568756581930325e-02 2.399336717796371130e-02 2.837326509848557901e-02 -2.326878804059001951e-02 3.214046908189734791e-02 -2.376764540775339052e-02 -2.541760136827458244e-02 -2.216605331729081668e-02 1.258792219507063881e-01 -4.659586471893432946e-02 -2.018753211888038232e-02 -1.689181555110088814e-02 -1.550624860002336805e-02 1.524247946476809529e-02 2.841753883207942880e-02 3.853028438931044297e-02 2.933925000372326550e-02 -1.011475678349901958e-01 -7.964451476642334105e-03 -6.286820852968527662e-02 -5.564896535185651603e-03 3.720791458674743007e-02 -3.255739610301050524e-02 5.383222889157331971e-03 6.133664606126997682e-02 2.783180554902736723e-03 1.200330510194401804e-02 -1.644212091919906860e-02 2.447833983897532151e-02 -3.119877093960111980e-02 5.698102753909239926e-02 -4.996056588817861244e-02 -8.720690098448106997e-03 1.072465537389144128e-03 2.355743834764645328e-02 -1.204882707753320535e-02 1.136325481504821787e-02 -5.475307795676494747e-03 -9.676143986903598671e-03 -5.392186252905178251e-02
-6.203828638181984462e-02 5.431134258747320233e-03 -2.588673461391590921e-02 -3.406507582859353428e-02 9.147355987611193156e-04 1.619567766824181118e-02 -1.751973844014883055e-02 -3.060656789842061340e-02 -2.038434449599415832e-01 -6.959229165455263488e-02 -7.702806840441953420e-03 -1.067481553031827089e-02 -1.057254935124959765e-02 2.438908915768913874e-02 -1.043545075898790093e-02 1.582935200554217436e-01 3.464085248769385728e-02 2.759040017136734080e-01 -9.264483579595361729e-03 4.016159013675635325e-02 -1.410176836285905420e-02 -2.564518988557181606e-02 -3.807572959399964374e-02 -6.414305188063411552e-03 -5.806669030132684262e-02 3.775708471224052676e-02 1.454997203470636928e-02 -4.821455048712554314e-02 -2.677102904178788392e-02 2.665497984077638827e-02 7.665498906311702526e-03 -1.841767616177794609e-02 -2.838891691176951074e-02 -8.711393622834566475e-03 6.536780434611384923e-03 -1.654257563765244507e-02 -3.426628245045325316e-02 -1.159416772234589388e-02 -7.665561237835720292e-03 1.859831654377352983e-01
-1.256822245160427697e-02 6.854840740749681971e-02 2.362420330658287701e-02 3.956290677779237402e-02 -3.181462000211333473e-03 -1.465270908429634582e-02 -3.021689705129127976e-03 -6.198182476410627612e-02 1.571456076928507695e-01 -8.250832965002286024e-03 3.261432007966403018e-03 4.066774952210669360e-04 5.423366380356271430e-03 -1.879479524523637937e-02 -1.444658798812880306e-02 3.478514948432793064e-03 3.567043679778471310e-02 -2.130177412849570129e-01 -1.283423467887471331e-02 1.810935709272656902e-02 -1.580802752088456345e-02 5.048271384739777372e-04 8.378661538132544523e-03 4.870959822461938538e-02 -4.779344817953549984e-02 -1.031125060525822645e-02 5.240691693151416919e-02 1.194900577302179454e-02 -1.926132058891170604e-02 -4.166656345994773983e-03 -9.094439761215574250e-03 1.432655721351571224e-02 2.226746878892642278e-02 -1.036534713151484807e-02 -4.624441858103628053e-03 8.097154325536995434e-03 -2.499628745817661368e-02 -8.233471699652605835e-03 5.970126678464484325e-03 -1.043643520267147767e-02
1.280615699732592649e-01 -5.524131198783110985e-02 4.360932049607305072e-02 3.510930530676659861e-02 -1.501131035049958415e-02 -7.801347082457372670e-04 1.213017650657042396e-01 3.116518606190480170e-02 -3.275974578187898500e-02 -9.125639347490445419e-02 3.692898171260463724e-03 1.371872019688750088e-03 -9.726470074205169000e-03 1.237524768748932483e-02 6.157965632141878393e-03 1.520519105669565496e-02 -3.382920177814580532e-03 4.127406716068888343e-02 -3.480119863266679242e-02 -6.372591488983814223e-02 -1.126438505774687293e-01 -2.352680815513366608e-02 -2.756089310776359269e-02 -5.856555567086361991e-02 4.202047770418444045e-02 -1.020603924882334534e-01 -1.063303966515081328e-02 3.731370496681015586e-02 -2.207301661879975535e-02 -1.181623222731783412e-02 3.729903438483678918e-02 9.654339993523815278e-02 2.219192841196527405e-03 -3.664791466768239220e-02 -1.084439906241087964e-02 -5.652975196024228460e-02 7.495239530691344410e-02 -2.151901879725880585e-03 -2.126797045133599004e-02 7.333453283913513032e-02
3.264800457054600064e-02 5.261461910894065647e-02 1.543235669499340261e-02 6.525092691079831253e-02 4.508748271522118600e-02 1.035994885027724868e-02 1.163412926380198026e-02 1.571412227775753970e-02 -1.735897404386836651e-02 -2.033976804776394670e-02 8.022269097961914897e-03 1.680011655004466642e-02 3.284297155070346058e-02 9.624921044349703247e-02 -2.915124955632874409e-02 -1.171026520509372421e-01 -1.506128634433492354e-02 -6.934069003905499184e-02 7.277022465339637314e-02 -1.897815132551853023e-01 -8.801505993345833112e-02 -4.675360365064216983e-02 -6.626361306692737929e-02 -2.088409352944686076e-02 3.021388296707501198e-01 8.210463976746958104e-02 8.061423281921853423e-02 -4.801353635169389872e-02 -4.319886532132768270e-02 -3.313824531495680042e-02 -1.038509007205508372e-02 -9.473242745236644467e-05 4.631251282088446469e-02 2.285971477341443639e-03 1.796624477768530084e-02 -1.301036353400702172e-01 9.209661159646075068e-02 -2.078827771416591821e-02 4.433265742388759444e-03 -1.376038053005553263e-01
-5.325640167699927791e-02 -2.984740420039240852e-02 -2.183707246193529808e-02 -4.210730555352874133e-02 5.038848595858074836e-05 9.686029952109412658e-04 6.362508287935672580e-02 2.379101386536847107e-02 -2.472282746570944600e-02 -7.330969463711856787e-03 -1.767177686512775431e-03 1.451233472560011862e-03 7.834078833069121678e-04 5.229223942515343754e-02 -1.054718884170361033e-02 1.412157291080413588e-02 -2.209350382502069197e-03 2.273252878831783994e-02 1.255430550756384857e-02 4.193231602386912442e-03 2.150668984034814074e-02 -1.122723027788201204e-02 -6.209458830078698477e-02 -3.450938924658211726e-02 5.732114817822290403e-02 3.448133689252419476e-02 5.117778309738291349e-03 7.040786956923169226e-04 2.119994466723876259e-02 1.633348741216594444e-02 -7.287092425814385710e-03 5.546235995508587424e-02 3.745518565309696041e-02 -3.123324609660360282e-02 -1.786127309913468700e-02 2.365022048732128620e-03 -2.958898719760453405e-02 -4.343188779228738389e-03 -1.471144428855239959e-02 -4.202850202367414134e-02
-2.724215900196661887e-03 1.826584974123147964e-02 5.292691229533549695e-03 2.741947497655335131e-02 -5.972779117604061147e-03 -5.149810246697424099e-02 5.585146357120594762e-02 -4.011000342911173050e-02 5.908762615193215162e-02 4.038976917515334220e-02 1.081305875713104749e-03 -1.785169812389273553e-02 6.228471426078359624e-04 -3.876552533884607132e-02 -4.215783498755271315e-03 1.595460663303593929e-02 -3.898876500272387981e-04 -7.097086107572653235e-02 1.663792753021015383e-02 5.035753843518919054e-02 -4.289379310594531453e-02 4.244305645291272799e-02 -1.056075737407405693e-02 -2.419034667396627314e-02 -3.879279652194107114e-02 -1.110501971849738555e-02 1.244292367923869116e-02 -2.469339115834934262e-02 1.288642110389301779e-02 7.658925123789165137e-03 -2.063965773318638883e-02 9.418078523760044316e-04 -3.931747702963320776e-04 -2.119953747034110034e-02 3.788697967280017093e-02 -1.895439004295977050e-03 2.890600663597409775e-02 -8.408666698064153761e-03 6.558624628321013152e-03 -3.414408781573068704e-03
